Version 8.7.0
Id 
Min label:-1
Max label:1
bits:18
lda:0
0 ngram:
0 skip:
options: --oaa 10
Checksum: 4169119627
:0
21952:-0.400197
21953:-0.0483563
21954:-0.386049
21955:-0.55771
21956:-0.212288
21957:0.0268134
21958:-0.386432
21959:-0.084683
21960:-1.05784
21961:-0.554047
101266:-0.000234097
101268:-0.000362537
101270:0.000372808
101273:-0.000349483
101282:-0.000106911
101284:-0.000165597
101286:0.000170262
101289:-0.000159583
101604:-0.00494923
101620:-0.000515067
101622:0.000423164
101633:-0.00953134
101634:-8.78949e-05
101636:-0.000404667
101638:0.000250287
101649:-0.000195837
101650:-0.000152861
101652:-0.000425169
101654:0.000302727
101665:-0.000252986
101666:-6.43158e-05
101668:-0.00131518
101669:-0.000742955
101670:0.000207237
101672:-0.000112982
101680:-0.00216778
101681:-0.000519908
101682:-0.000473252
101684:-0.000566886
101685:-0.00015268
101686:0.000380202
101688:-1.37362e-05
101696:0.000118235
101698:-0.000426743
101700:-0.000537093
101701:-0.000165082
101702:0.000247671
101703:-0.000284268
101704:-5.93618e-05
101712:0.000152792
101714:-0.000816494
101716:-0.00083998
101717:-0.000234552
101718:0.000336143
101719:-0.000143811
101721:-0.000244228
101728:0.000449941
101730:-0.000702972
101732:-0.000408094
101733:-0.000321125
101734:0.00053743
101735:-0.000381842
101737:-0.000241349
101744:-0.00331588
101745:0.00027309
101746:-0.000508393
101747:-8.47134e-05
101748:-0.000418362
101750:-3.65783e-06
101751:-1.50681e-05
101753:-0.00127159
101760:8.7639e-05
101761:0.000233905
101762:-0.000282061
101763:-7.03111e-05
101764:-0.000650046
101765:-0.00137191
101766:-9.48015e-05
101767:-9.12193e-05
101768:-0.000251495
101769:-0.000402809
101776:1.86744e-05
101777:-0.000261414
101778:0.000214015
101779:-0.000468074
101780:-0.000608358
101781:-6.39686e-05
101782:-0.000222859
101784:-0.000207593
101785:-0.000230652
101792:0.000273341
101793:-0.00094377
101794:-0.000281785
101796:-0.000187389
101797:-0.000561205
101798:0.000148712
101800:-0.000273834
101801:-0.000269929
101810:-0.000593106
101812:-0.000301105
101814:0.000615904
101816:-0.000298672
101817:-0.000254598
101826:-0.000471934
101828:-0.000398333
101830:0.0004165
101832:-0.000178348
101833:-0.000584304
101842:-0.000541178
101844:-0.000720729
101846:0.000559035
101848:-0.000464318
101849:-0.000271868
101858:-0.000445229
101860:-0.000400264
101862:0.000168415
101864:-0.000204761
101865:-0.000475493
101876:-0.00049228
101878:0.00201275
101880:-0.000163574
101881:-0.000247458
101892:-0.000257917
101896:-0.00200624
101897:-0.0030349
102020:-0.0016044
102021:-0.00392168
102023:-0.000600518
102034:-0.000399238
102036:-0.000704226
102039:-0.00174186
102048:-0.0381172
102050:-0.00103348
102052:-0.00136542
102054:0.0014864
102064:-0.000221576
102066:-4.02738e-06
102068:-0.000296905
102070:0.000213666
102072:-0.00866366
102080:-0.000178481
102081:-0.000493022
102082:-1.80159e-05
102084:-0.000746989
102085:-0.000976718
102086:0.000380516
102088:-0.00027074
102096:-0.000375727
102097:-0.000261047
102098:-0.00011978
102099:-0.000509752
102100:-0.00112166
102101:-0.000335504
102102:0.000268478
102104:-0.000136961
102112:-0.000356833
102113:-0.000206108
102114:-0.000164367
102115:-0.000380663
102116:-0.00148017
102117:-0.000507016
102118:0.000211286
102119:-0.000818214
102120:-0.000282045
102128:-0.000691449
102129:-0.000424255
102130:-0.0006803
102131:-5.31292e-05
102132:-0.00116642
102133:-0.00038597
102134:0.000583945
102135:-0.000364521
102136:-0.000454173
102144:-0.00121452
102145:-0.000554177
102146:-0.000581786
102147:-0.000248861
102148:-0.00113836
102149:-0.000692435
102150:0.000381412
102151:-0.000522295
102152:-0.000654998
102153:-0.000445887
102160:-0.00121345
102161:-0.000131879
102162:-0.000488496
102163:-0.000245585
102164:-0.00150259
102165:-0.000890375
102166:0.000377233
102167:-0.000292545
102168:-0.000549392
102169:-0.000237657
102176:-0.00102607
102177:-1.35539e-05
102178:-0.000594135
102179:-0.000370863
102180:-0.00123241
102181:-0.00119571
102182:0.000467448
102183:-0.000305419
102184:-0.000899909
102185:-0.000732563
102192:-0.00100456
102193:-5.56151e-05
102194:-0.000724849
102195:-0.000112718
102196:-0.000915972
102197:-0.00123359
102198:0.00024008
102199:-1.59211e-05
102200:-0.000816248
102201:-0.000489506
102208:-0.000998761
102209:6.59622e-05
102210:-0.000703408
102211:-0.000220619
102212:-0.0011103
102213:-0.00114476
102214:0.000302081
102215:-0.00164168
102216:-0.00096176
102217:-0.000667008
102224:-0.000842069
102225:4.78161e-06
102226:-0.00060767
102227:-0.000205211
102228:-0.000896396
102229:-0.000874025
102230:0.000280525
102231:-0.000909551
102232:-0.000930877
102233:-0.000590025
102240:-0.00110575
102241:-0.000359459
102242:-0.000546119
102243:-0.000273735
102244:-0.00093956
102245:-0.00057253
102246:0.000281383
102247:-0.000108431
102248:-0.000705074
102249:-0.000856793
102256:-0.00104736
102257:-0.000283027
102258:-0.000948011
102259:-0.000277049
102260:-0.000967246
102261:-0.000478354
102262:0.000360692
102263:-6.70123e-05
102264:-0.0006595
102265:-0.000781422
102272:-0.00074918
102273:-0.000377551
102274:-0.000746113
102275:-0.000361526
102276:-0.000928671
102277:-0.000343031
102278:0.000390673
102279:-6.61578e-05
102280:-0.000579673
102281:-0.000595765
102288:-0.000689166
102289:-0.000263645
102290:-0.00071551
102291:-0.000344869
102292:-0.000987456
102293:-0.000514971
102294:0.000670966
102295:-0.000452867
102296:-0.000378826
102297:-0.000362716
102304:-0.000307492
102305:-0.00062853
102306:-0.000432062
102307:-0.000365908
102308:-0.000802671
102309:-0.000340843
102310:0.000842541
102312:-0.000894462
102313:-0.000349282
102320:-0.000349553
102321:-0.000180272
102322:-0.000479738
102323:-0.000348046
102324:-0.000580046
102325:-0.000378705
102326:0.000854573
102328:-0.000216049
102329:-0.00034156
102336:-0.000226621
102337:-0.000306217
102338:-0.000313938
102339:-0.000723522
102340:-0.000647437
102341:-0.000238508
102342:0.000556011
102344:-0.000435748
102345:-0.000523259
102353:-0.000344769
102354:0.000104565
102356:-0.00042864
102357:-0.000772818
102358:0.000133693
102360:-0.000226772
102370:0.000264746
102372:-0.000471096
102374:-0.000287669
102376:-0.000271962
102449:0.0010489
102451:-0.00355357
102454:-0.00119346
102464:-0.0103056
102465:0.00440648
102468:-0.000553944
102469:1.15542e-06
102470:7.30438e-05
102471:-0.000207369
102480:-0.000710708
102482:-0.00118793
102483:2.41507e-05
102484:-0.00166158
102485:0.000128744
102486:0.000838246
102487:-0.000622107
102496:-0.00544609
102497:-0.00244207
102498:-0.000350376
102499:1.24311e-05
102500:-0.000309327
102501:-0.000269559
102502:4.95777e-05
102505:-0.000393066
102512:-0.000563523
102513:-0.000852718
102514:-0.000169573
102515:-0.000146634
102516:-0.000284921
102517:-0.000654793
102518:8.21853e-05
102520:-0.000641781
102521:-0.000298439
102528:-0.000391492
102529:-0.000450069
102530:-7.84914e-05
102531:-0.000322658
102532:-0.00063357
102533:-0.00528892
102534:4.10354e-05
102535:-0.00173413
102536:-0.000246671
102537:-0.00117933
102544:-0.000717699
102545:-0.000542059
102546:0.000115508
102547:-0.000135421
102548:-0.000805352
102549:-0.000230339
102550:6.98628e-05
102551:-0.000457389
102552:-0.000104857
102553:-0.00180443
102560:-0.00053602
102561:-0.000589641
102562:0.00028915
102563:-0.000127937
102564:-0.00136771
102565:-0.000387055
102566:3.1137e-05
102567:-0.000534499
102568:-0.000277025
102569:-0.000309066
102576:-0.000789502
102577:-0.000749542
102578:0.000140301
102579:-5.58832e-05
102580:-0.00126874
102581:-0.000540282
102582:2.86526e-05
102583:-0.000454809
102584:-0.000161377
102585:-0.000518532
102592:-0.000573142
102593:-0.00101277
102594:-9.74081e-06
102595:1.10473e-05
102596:-0.00130024
102597:-0.000772505
102598:-9.54658e-05
102599:-0.000699179
102600:-0.000504831
102601:-0.000692847
102608:-0.000380178
102609:-0.000675257
102610:-3.25073e-05
102611:0.000260812
102612:-0.00163913
102613:-0.000393774
102614:-0.000101616
102615:-0.00073549
102616:-0.000562803
102617:-0.000868018
102624:-0.000490959
102625:-0.000501406
102626:1.77245e-05
102627:0.000167125
102628:-0.00179681
102629:-0.000431921
102630:-5.16494e-05
102631:-0.000596098
102632:-0.000591978
102633:-0.00107747
102640:-0.000484049
102641:-0.000506706
102642:-0.0001613
102643:0.000198486
102644:-0.00149106
102645:-0.000479955
102646:1.58074e-06
102647:-0.000373518
102648:-0.000700736
102649:-0.001212
102656:-0.000462279
102657:-0.000142597
102658:-0.000213903
102659:-4.61974e-05
102660:-0.00121367
102661:-0.000458692
102662:2.10237e-05
102663:-0.000671465
102664:-0.00108337
102665:-0.00136148
102672:-0.000544135
102673:-0.000133345
102674:-0.000225911
102675:0.000145637
102676:-0.0010188
102677:-0.000504166
102678:4.45817e-05
102679:-0.00025481
102680:-0.00100944
102681:-0.00124094
102688:-0.000656117
102689:-0.0003435
102690:-0.000239151
102691:0.00021159
102692:-0.00114303
102693:-0.000409424
102694:0.00015539
102695:-0.000373737
102696:-0.00116551
102697:-0.00129314
102704:-0.000875343
102705:-0.00071053
102706:-0.000342904
102707:0.000202219
102708:-0.00113112
102709:-0.000256648
102710:0.000202174
102711:-0.000369245
102712:-0.000857183
102713:-0.000786165
102720:-0.00072495
102721:-0.000656834
102722:-0.000352488
102723:0.000110191
102724:-0.000659003
102725:-0.000341057
102726:0.000338363
102727:-0.000188537
102728:-0.00106346
102729:-0.000676204
102736:-0.000694527
102737:-0.000610653
102738:-0.00017918
102739:0.000343167
102740:-0.000488459
102741:-0.000379038
102742:0.00024983
102743:-0.000381327
102744:-0.000627683
102745:-0.000858972
102752:-0.000526408
102753:-0.00034912
102754:-0.000255789
102755:-3.57389e-05
102756:-0.000286758
102757:-0.000164972
102758:0.000381644
102760:-0.000554398
102761:-0.000402316
102768:-0.000836989
102769:-0.000350462
102770:-0.000284001
102771:-0.0004949
102772:-0.000178991
102773:-0.000184497
102774:0.000360687
102776:-0.000106388
102777:-0.00036228
102784:-0.000223953
102785:-0.000548822
102786:-0.000424655
102787:-0.000450554
102788:-0.000544822
102789:-0.000248161
102790:0.00032617
102792:0.000139534
102793:-0.00350266
102800:-0.000109787
102801:-0.000525377
102802:-7.72353e-05
102803:-0.000452846
102804:-0.000489827
102805:-8.61533e-05
102806:0.000333961
102808:0.000197365
102816:-0.0001691
102817:-0.00132462
102818:0.000266308
102820:-0.000208139
102821:-0.00054682
102822:0.000175778
102824:-0.000429394
102832:-0.000925067
102833:-0.000356307
102837:0.00103627
102838:0.000279984
102840:-0.000211199
102897:0.000306
102898:-0.000574203
102899:0.000111679
102901:-0.000918507
102902:-4.8037e-05
102904:0.00159706
102912:-0.00214259
102913:-9.1457e-05
102914:-0.000685981
102915:0.000682566
102916:-0.00106145
102917:-0.00081002
102918:-0.000907908
102919:0.000466303
102928:-0.00052485
102929:0.000159828
102930:-0.000386656
102931:0.00024029
102932:4.12591e-05
102933:-0.000999802
102934:9.85947e-05
102935:4.22966e-06
102936:-0.00168815
102937:-0.000114695
102944:-0.000776366
102945:-7.03365e-05
102946:-1.81158e-05
102947:0.000395725
102948:1.00653e-05
102949:-0.000610134
102950:7.54502e-05
102951:5.12277e-05
102952:-0.000144907
102953:-0.000523602
102960:-0.000397985
102961:-0.00039449
102962:0.00028509
102963:0.000211621
102964:-0.00050159
102965:-0.000624869
102966:-3.80395e-05
102967:-0.000574556
102968:-0.000271304
102969:-0.000348097
102976:-0.000203447
102977:-0.000358738
102978:0.000221401
102979:0.000195968
102980:-0.000535233
102981:-0.000561257
102982:-0.000159578
102983:-0.000878014
102984:-2.19663e-05
102985:-0.000699949
102992:-0.000397642
102993:-0.000217776
102994:0.000173316
102995:0.000220519
102996:-0.000524241
102997:-0.000507619
102998:5.11053e-06
102999:-0.000706027
103000:0.000146867
103001:-0.000521216
103008:-0.000374409
103009:-0.000517631
103010:0.000403917
103011:7.51291e-05
103012:-0.000645409
103013:-0.000399931
103014:-0.000107196
103015:-0.000826422
103016:0.000117284
103017:-0.000884027
103024:-0.00014525
103025:-0.000435652
103026:0.000120779
103027:0.000325231
103028:-0.000654606
103029:-0.00023685
103030:-4.3332e-05
103031:-0.0011214
103032:1.20278e-05
103033:-0.000682141
103040:-0.000238945
103041:-0.000555887
103042:-1.15663e-05
103043:0.00023634
103044:-0.000803818
103045:-0.000209421
103046:-0.000432528
103047:-0.000818374
103048:-0.000170273
103049:-0.000725374
103056:-0.00033827
103057:-0.000232505
103058:0.000207191
103059:0.000178269
103060:-0.000664804
103061:-0.00034992
103062:-0.000445877
103063:-0.00086873
103064:-6.36578e-05
103065:-0.000820705
103072:-0.000130501
103073:-0.000169437
103074:0.00017908
103075:0.000192083
103076:-0.000557406
103077:-0.000442881
103078:-0.00024933
103079:-0.000784765
103080:5.25431e-05
103081:-0.000870133
103088:-0.000262025
103089:-0.000103522
103090:0.000110589
103091:0.000222758
103092:-0.000687159
103093:-0.000233103
103094:-0.000344633
103095:-0.000859868
103096:-8.01418e-05
103097:-0.000878053
103104:-0.00012746
103105:-9.21611e-05
103106:5.57885e-06
103107:0.000205617
103108:-0.000666685
103109:-8.52796e-05
103110:-0.000331604
103111:-0.000974753
103112:-1.89328e-05
103113:-0.000933871
103120:-0.000298834
103121:-0.000235075
103122:8.22322e-05
103123:9.78052e-06
103124:-0.000454113
103125:1.31862e-05
103126:-0.000144258
103127:-0.00106176
103128:-3.57954e-05
103129:-0.00116888
103136:-0.000149482
103137:-0.00032059
103138:-9.51211e-05
103139:-0.000134666
103140:-0.000551408
103141:-9.81292e-06
103142:-6.76378e-05
103143:-0.00120834
103144:-0.000350301
103145:-0.00118087
103152:-9.52353e-05
103153:-0.000159176
103154:-6.32953e-06
103155:4.65693e-05
103156:-0.000674489
103157:8.56261e-05
103158:8.05877e-05
103159:-0.00112284
103160:-0.000343322
103161:-0.00104118
103168:-8.62881e-05
103169:-1.07038e-06
103170:-0.00038831
103171:1.68623e-05
103172:-0.000181991
103173:-2.12948e-05
103174:0.000141196
103175:-0.00106478
103176:-0.000272897
103177:-0.00109753
103184:-0.000186439
103185:-0.000105004
103186:-0.000239066
103187:-0.000294354
103188:0.0001086
103189:-0.000109014
103190:0.000146671
103191:-0.000918402
103192:-0.000206821
103193:-0.000597793
103200:-0.000287484
103201:1.42401e-05
103202:-0.000526982
103203:-0.000315681
103204:4.81155e-05
103205:0.000258438
103206:3.03954e-05
103207:-0.000452222
103208:-0.000276743
103209:-0.000789225
103216:-0.000260765
103217:0.000259394
103218:-0.000706712
103219:-0.000284693
103220:0.000346215
103221:0.000167988
103222:9.22912e-05
103223:-0.000635159
103224:-0.000482184
103225:-0.000586135
103232:-0.000247906
103233:-8.26731e-05
103234:-0.000893633
103235:-0.00093636
103236:0.000244925
103237:0.000448339
103238:0.000312567
103239:-0.000791455
103240:-0.000369663
103241:-0.000279281
103248:-0.000580571
103249:-0.000411037
103250:-0.000618353
103251:-0.000720924
103252:-9.73846e-05
103253:0.000552847
103254:-8.16885e-05
103255:-0.000293069
103256:5.65517e-05
103257:-0.00205911
103264:-0.000933229
103265:-0.000875093
103266:-0.00013955
103268:-0.000266359
103269:7.5595e-05
103270:-0.000259577
103271:-0.00122652
103272:0.000171634
103280:-0.00289933
103281:-0.00108886
103282:-0.000669847
103284:-0.000212306
103285:-7.24575e-05
103286:-0.000126168
103288:0.000405497
103297:-0.000554678
103298:-0.000669847
103300:-0.000775713
103301:-0.00125985
103302:0.000790921
103304:0.000213447
103344:-0.000875314
103345:0.000752223
103346:-0.000191406
103347:-5.79529e-05
103348:-0.00102501
103349:-0.000478596
103350:0.000101341
103360:-0.000650329
103361:0.000812851
103362:-0.000481067
103363:0.000441182
103364:-8.57773e-05
103365:-0.000182182
103366:-0.000425567
103367:-4.16528e-06
103368:-0.000582903
103369:-0.00102907
103376:-0.000378056
103377:0.000986409
103378:0.000104903
103379:0.000262217
103380:0.000139851
103381:-0.00066497
103382:1.97331e-05
103383:-0.000198841
103384:-0.000554942
103385:-0.000526678
103392:-0.000384393
103393:-7.23957e-05
103394:4.33703e-05
103395:0.000349502
103396:8.40012e-05
103397:-0.000689371
103398:-0.000339414
103399:-2.47123e-05
103400:-0.000440508
103401:-0.000750636
103408:-0.000247358
103409:-3.59643e-05
103410:-0.000111517
103411:0.000314017
103412:-0.000228036
103413:-0.000457929
103414:-0.000213728
103415:-0.000186643
103416:-0.00028241
103417:-0.00111502
103424:-0.000332022
103425:-0.000220228
103426:-1.24077e-05
103427:0.000270526
103428:-0.000245128
103429:-0.000304452
103430:-0.000360291
103431:-0.000192416
103432:-0.000246292
103433:-0.000967447
103440:-0.000204621
103441:-0.000463787
103442:-7.7998e-05
103443:3.0612e-05
103444:-0.000258125
103445:-0.000284463
103446:-0.000136333
103447:0.000108128
103448:-0.000389414
103449:-0.000784284
103456:-0.000243141
103457:-0.000566321
103458:6.16393e-05
103459:9.10933e-05
103460:-0.000264179
103461:-0.000116496
103462:-9.03345e-05
103463:-2.90097e-05
103464:-0.000345799
103465:-0.000802704
103472:-0.00012236
103473:-0.000528069
103474:0.000140394
103475:0.000180529
103476:-0.000312854
103477:-6.42696e-05
103478:-8.64284e-05
103479:-0.000133492
103480:-0.000475317
103481:-0.000692704
103488:-0.000199445
103489:-0.000531896
103490:0.000241373
103491:9.5641e-05
103492:-0.000226121
103493:-9.29768e-05
103494:-0.000362753
103495:-0.000438197
103496:7.06982e-05
103497:-5.73584e-05
103504:-0.000200629
103505:-0.000344477
103506:0.000205994
103507:6.71715e-05
103508:-0.000289782
103509:-0.000189705
103510:-0.000242176
103511:-0.000401094
103512:-7.36587e-05
103513:-6.70781e-05
103520:1.5613e-05
103521:-0.000261683
103522:0.000237564
103523:4.92265e-05
103524:-0.000332759
103525:-0.000292488
103526:-0.000418218
103527:-0.000328119
103528:4.84389e-05
103529:-4.53738e-05
103536:0.000140569
103537:-0.000117093
103538:0.000207998
103539:7.83128e-06
103540:-0.000102625
103541:-0.000233544
103542:-0.000405058
103543:-0.000378612
103544:9.79467e-05
103545:-0.000381558
103552:0.000141511
103553:-2.8239e-05
103554:0.000198526
103555:6.07778e-05
103556:-2.32563e-06
103557:-0.000280016
103558:-0.000335446
103559:-0.000488614
103560:7.55932e-05
103561:-0.000632445
103568:-2.10464e-05
103569:-0.000248311
103570:0.000262882
103571:8.76194e-05
103572:0.000209726
103573:-0.000226676
103574:-0.000232198
103575:-0.000684301
103576:0.000101276
103577:-0.000991241
103584:3.07676e-06
103585:-0.00039817
103586:0.000261703
103587:-0.000255589
103588:8.1562e-05
103589:-2.27406e-05
103590:-0.00017588
103591:-0.00122733
103592:0.00021923
103593:-0.0008134
103600:8.3288e-05
103601:-0.000149701
103602:0.000197671
103603:-0.000190528
103604:7.71077e-05
103605:4.41808e-05
103606:9.11799e-07
103607:-0.00117169
103608:6.84878e-05
103609:-0.000894086
103616:-8.92299e-05
103617:8.75287e-05
103618:-3.15813e-05
103619:-0.000123557
103620:0.000179006
103621:7.16102e-06
103622:0.000123045
103623:-0.00149127
103624:2.19678e-05
103625:-0.000800628
103632:-0.000121385
103633:0.000178528
103634:-6.16142e-05
103635:-0.000261095
103636:0.00011977
103637:0.000275776
103638:0.00012119
103639:-0.00125557
103640:-0.000124039
103641:-0.000740092
103648:-4.85815e-05
103649:0.000400821
103650:-0.000147918
103651:-0.00042735
103652:6.63812e-05
103653:0.000244941
103654:5.15532e-05
103655:-0.000913659
103656:-0.000241719
103657:-0.00094727
103664:-3.98725e-06
103665:0.000384804
103666:-0.000145768
103667:-0.000416516
103668:0.000250689
103669:0.000493584
103670:8.21954e-05
103671:-0.000826938
103672:-0.000341641
103673:-0.00106249
103680:-0.000245688
103681:0.000242799
103682:-0.00074484
103683:-0.000667802
103684:0.000349059
103685:0.000417445
103686:7.82206e-05
103687:-0.000967945
103688:-0.000328422
103689:-0.00128966
103696:-0.000843215
103697:-4.43251e-05
103698:-0.000981447
103699:-0.00050762
103700:-8.44658e-05
103701:0.00040604
103702:-0.000269941
103703:-0.000538086
103704:-0.000212505
103705:-0.000986221
103712:-0.000876809
103713:-0.000992664
103714:-0.000184002
103715:-0.000577335
103716:-0.000424045
103717:9.74397e-05
103718:-0.000622665
103719:-0.000301536
103720:7.49957e-05
103721:-0.000810219
103728:-0.000579635
103729:-0.00047133
103730:-0.000199071
103732:-0.000903654
103733:0.000167034
103734:3.54147e-05
103735:-0.000238286
103736:6.71208e-05
103737:-0.000693999
103744:-0.000578531
103745:-0.000375783
103746:-0.000453722
103748:-0.00121092
103749:-5.31423e-05
103750:0.000535739
103751:-0.000224724
103752:2.5612e-06
103779:0.00741432
103785:-0.00679891
103792:-0.0012224
103793:-0.000195818
103794:-1.93065e-06
103795:-0.00016487
103796:-0.000526803
103797:0.000112315
103799:0.00038612
103800:-0.000173241
103801:-0.00250443
103808:-0.000292774
103809:2.62643e-05
103810:-0.000200017
103811:0.000462784
103812:-0.000264081
103813:-0.000897236
103814:-0.000415932
103815:0.000530814
103816:-0.000610685
103817:-0.000349285
103824:-0.000219194
103825:-0.000122077
103826:4.24549e-05
103827:0.000336374
103828:9.59928e-05
103829:-0.00041573
103830:-0.000221875
103831:9.16253e-05
103832:-0.00036766
103833:-0.000772323
103840:-0.000239647
103841:-0.000487837
103842:-9.27973e-05
103843:0.000160183
103844:0.000365332
103845:-0.000279623
103846:-0.000454159
103847:5.13656e-05
103848:-0.00042139
103849:-0.00124054
103856:-0.000323778
103857:-0.000300975
103858:-4.00188e-05
103859:0.000225689
103860:-4.57626e-05
103861:-0.000164538
103862:-0.000264279
103863:0.000151137
103864:-0.000329743
103865:-0.0011662
103872:-0.000123556
103873:-0.000428107
103874:0.000182473
103875:-8.5105e-05
103876:9.36755e-06
103877:-0.000186819
103878:-0.00010818
103879:0.00022437
103880:-0.00024773
103881:-0.0011917
103888:-0.00034571
103889:-0.000583039
103890:3.75779e-05
103891:4.7287e-05
103892:1.74253e-05
103893:-0.000176725
103894:7.30839e-05
103895:0.000319045
103896:-0.000174853
103897:-0.000890039
103904:-0.000451526
103905:-0.000634826
103906:2.78027e-06
103907:0.000279096
103908:-0.00014852
103909:-1.0126e-05
103910:-0.000108367
103911:0.000133299
103912:-0.000211957
103913:-0.000455898
103920:-7.97608e-05
103921:-0.000298227
103922:4.33281e-05
103923:0.000196031
103924:-0.000251201
103925:-6.81879e-05
103926:-0.000307575
103927:0.000204729
103928:-8.90494e-05
103929:-0.000222305
103936:-8.60301e-05
103937:-0.000230072
103938:5.46688e-05
103939:0.000203833
103940:-0.000323037
103941:-2.06126e-05
103942:-0.000110613
103943:0.000173016
103944:-7.92486e-05
103945:3.08298e-05
103952:-3.11986e-05
103953:-0.000274204
103954:7.86343e-05
103955:0.000192374
103956:-0.000458813
103957:-0.000126994
103958:-0.000153762
103959:0.000225998
103960:-5.56933e-05
103961:0.000310879
103968:7.38124e-05
103969:-0.000282034
103970:9.59793e-05
103971:0.000273717
103972:-0.000570526
103973:-0.000148738
103974:-0.000296003
103975:-1.85448e-05
103976:3.87467e-05
103977:0.000507201
103984:9.02129e-05
103985:-0.000327523
103986:0.00010797
103987:0.000163025
103988:-0.000756571
103989:-5.75767e-05
103990:-0.000244683
103991:-0.000137882
103992:-1.55396e-05
103993:0.000482507
104000:4.20966e-05
104001:-0.000415668
104002:8.23155e-05
104003:0.000233458
104004:-0.000773954
104005:-0.000243345
104006:-0.000198935
104007:-0.000196541
104008:0.000151788
104009:0.00048464
104016:9.15617e-05
104017:-0.000397009
104018:8.7873e-05
104019:0.000246796
104020:-0.000573537
104021:-0.000254872
104022:-0.000314545
104023:2.24386e-05
104024:0.00013283
104025:0.000461051
104032:0.000181428
104033:-0.000332804
104034:-2.18253e-05
104035:8.73216e-05
104036:-0.000454871
104037:-0.000125286
104038:-0.000237179
104039:0.000126518
104040:0.000156222
104041:0.00042241
104048:0.000160376
104049:-0.000191026
104050:-6.7665e-05
104051:-1.34901e-05
104052:-0.000402208
104053:-3.75774e-05
104054:-0.000234387
104055:-0.000111126
104056:-8.62646e-05
104057:0.000264809
104064:0.000134228
104065:-0.000125893
104066:-0.000111521
104067:-0.000232753
104068:-8.31686e-05
104069:0.000123611
104070:-0.00020621
104071:-0.000249237
104072:2.67728e-05
104073:8.96776e-05
104080:-4.05402e-05
104081:7.42483e-05
104082:-0.000144769
104083:-3.19866e-05
104084:3.39941e-05
104085:0.000198425
104086:-0.000306516
104087:-0.000209917
104088:-4.31542e-05
104089:8.94273e-05
104096:0.000246439
104097:9.41262e-05
104098:-5.52684e-05
104099:-0.000169056
104100:0.00023567
104101:0.000135998
104102:-0.000276117
104103:-5.69934e-05
104104:3.76839e-05
104105:-0.000427442
104112:0.000292696
104113:3.56997e-05
104114:-0.000118519
104115:-0.000334472
104116:0.000480993
104117:0.000314304
104118:-0.000138183
104119:-0.000247398
104120:-3.52057e-06
104121:-0.000830591
104128:-0.000272902
104129:-9.01871e-05
104130:-0.000713273
104131:-0.000573984
104132:0.000700933
104133:0.000434671
104134:-0.00039186
104135:-0.000744055
104136:-3.22125e-05
104137:-0.00126607
104144:-0.00131353
104145:-0.000518696
104146:-0.000822685
104147:-0.00104467
104148:-0.000132169
104149:0.000708465
104150:-0.000324437
104151:-0.000523683
104152:-0.000322304
104153:-0.00103503
104160:-0.00146433
104161:-0.00104289
104162:-0.000645412
104163:-0.00089972
104164:-0.000370045
104165:0.000580701
104166:-0.000496518
104167:-0.00076352
104168:-3.89404e-05
104169:-0.000702449
104176:-0.000791917
104177:-0.00117168
104178:5.43898e-05
104179:-0.000560938
104180:-0.000226728
104181:-7.72672e-05
104182:-0.000361876
104183:-0.000551129
104184:-0.000126929
104185:-0.000458095
104192:-0.00051191
104196:-0.000408219
104197:-2.59685e-05
104198:-0.000103553
104199:-0.000265606
104200:0.000135097
104201:-0.000274374
104211:-0.000546542
104224:-0.000463252
104225:-0.000920503
104226:-0.000487431
104227:0.000292092
104229:-0.000300281
104231:0.000492418
104232:-0.00028145
104233:-0.000656854
104240:-8.46403e-05
104241:-0.000349995
104242:0.000134003
104243:-0.000637502
104244:-0.00177615
104245:-1.25871e-05
104247:0.000204538
104248:-0.000926566
104249:-0.00082399
104256:-0.000222214
104257:-0.000252575
104258:-0.000121714
104259:1.66862e-05
104260:-3.01208e-05
104261:-0.000801191
104262:-0.000470568
104263:0.000473084
104264:-0.000698252
104265:-0.000529786
104272:-0.000563216
104273:-0.000159749
104274:-1.40083e-05
104275:0.000254035
104276:6.736e-05
104277:-0.00110133
104278:-0.000341084
104279:8.16558e-05
104280:-0.000166654
104281:-0.000910708
104288:-0.000218599
104289:-0.000676274
104290:-0.000169514
104291:0.000180131
104292:0.00029964
104293:-0.000500271
104294:-0.000385622
104295:5.75234e-05
104296:-0.000195017
104297:-0.00105402
104304:-0.000208325
104305:-0.000643115
104306:5.47225e-05
104307:0.000104923
104308:2.94854e-05
104309:-0.000386462
104310:-0.000488416
104311:0.000161409
104312:-0.000190325
104313:-0.000974081
104320:-0.000156877
104321:-0.000378868
104322:-3.29596e-05
104323:-4.48681e-05
104324:-0.000154788
104325:1.62285e-05
104326:-0.000116714
104327:0.000337293
104328:8.65467e-05
104329:-0.000671884
104336:-0.000365228
104337:-0.000592901
104338:2.31198e-05
104339:6.22095e-05
104340:-7.89718e-06
104341:3.93938e-05
104342:-1.5434e-05
104343:0.000166454
104344:0.000137526
104345:-0.000312007
104352:-1.98504e-05
104353:-0.000527511
104354:-9.3622e-05
104355:2.98898e-05
104356:3.23251e-06
104357:-2.94735e-05
104358:-0.00013898
104359:0.00028006
104360:1.55801e-05
104361:-0.000339236
104368:-4.36648e-05
104369:-0.000256199
104370:-8.25113e-05
104371:-8.18308e-05
104372:-0.000244295
104373:0.000155464
104374:-0.00017225
104375:0.000354171
104376:-1.36315e-05
104377:-0.000156484
104384:-9.69296e-05
104385:-0.000191126
104386:7.733e-05
104387:-5.6919e-05
104388:-0.000333068
104389:0.000127902
104390:-0.000152556
104391:0.000267924
104392:-3.65393e-05
104393:-4.42218e-05
104400:-2.33044e-05
104401:-9.05611e-05
104402:-2.11518e-05
104403:0.000133028
104404:-0.000628106
104405:2.70259e-05
104406:-0.000286605
104407:0.000189185
104408:-0.000104997
104409:0.000239241
104416:0.00012429
104417:-0.00020628
104418:7.91549e-05
104419:8.42973e-05
104420:-0.000683328
104421:-0.000124312
104422:-0.000270523
104423:-9.96507e-06
104424:-6.94581e-05
104425:0.000536004
104432:3.95658e-05
104433:-0.000231244
104434:2.86384e-05
104435:0.000220735
104436:-0.000897908
104437:-0.000123877
104438:-0.00018264
104439:-0.000259564
104440:-0.000136428
104441:0.000807424
104448:8.55678e-05
104449:-0.000469412
104450:-0.00014602
104451:0.000224925
104452:-0.000910156
104453:-0.000213349
104454:-0.000228595
104455:-0.000265085
104456:6.08541e-05
104457:0.000938792
104464:0.000141626
104465:-0.000315273
104466:-5.76647e-05
104467:-7.92542e-06
104468:-0.000799705
104469:1.19047e-05
104470:-0.000481912
104471:-0.000128826
104472:-6.86272e-05
104473:0.000780021
104480:0.000266482
104481:-0.000248395
104482:-0.000301647
104483:0.000146639
104484:-0.000353209
104485:0.000104592
104486:-0.000320259
104487:0.000154005
104488:-0.000277177
104489:0.000290288
104496:0.00027537
104497:-0.000217109
104498:-0.000162741
104499:3.59001e-05
104500:-0.000109192
104501:1.49016e-05
104502:-0.000473599
104503:0.0001763
104504:-0.000177018
104505:-2.44581e-05
104512:0.000193237
104513:-0.000153397
104514:-0.000141117
104515:-4.61949e-05
104516:-6.09131e-05
104517:4.35833e-05
104518:-0.000612594
104519:6.6825e-05
104520:-7.88076e-05
104521:-5.2015e-05
104528:4.49778e-05
104529:-7.94619e-07
104530:-8.33063e-05
104531:-6.60358e-06
104532:5.04801e-05
104533:9.7418e-05
104534:-0.000633218
104535:0.000127259
104536:7.30766e-05
104537:-9.15442e-05
104544:9.45733e-05
104545:1.24736e-05
104546:6.55775e-06
104547:-0.000204932
104548:8.13088e-05
104549:0.000101026
104550:-0.000562301
104551:8.95275e-05
104552:0.000118305
104553:-0.000163965
104560:-3.01553e-05
104561:-9.59268e-05
104562:9.27523e-05
104563:-0.000284955
104564:0.000245174
104565:0.000125901
104566:-0.000623852
104567:8.85522e-05
104568:2.81148e-05
104569:-0.000360612
104576:-0.000153013
104577:-0.000428119
104578:-0.000711183
104579:-0.000735387
104580:0.000233258
104581:0.000464098
104582:-0.00063066
104583:-9.02571e-05
104584:0.000372511
104585:-0.000791541
104592:-0.000925097
104593:-0.00110964
104594:-0.0010939
104595:-0.00124077
104596:-0.000337743
104597:0.000735103
104598:-0.000336222
104599:-0.00047846
104600:-6.9723e-05
104601:-0.00101502
104608:-0.00132163
104609:-0.00117547
104610:-0.000410848
104611:-0.000670959
104612:-0.000510617
104613:0.00102778
104614:-0.000269298
104615:-0.000804408
104616:-0.000464256
104617:-0.00088967
104624:-0.000998667
104625:-0.000449239
104626:-0.000768722
104627:-0.000196423
104628:-0.000240288
104629:0.00010662
104630:3.94288e-06
104631:-0.000693358
104632:-0.00017254
104633:-0.000529406
104640:-0.000361089
104641:-0.000333143
104644:-0.00429216
104645:8.5017e-06
104646:-7.41663e-05
104648:0.000152407
104649:-0.00109092
104656:0.000975481
104658:-0.000959578
104659:-0.000134509
104660:-0.000877986
104663:-0.000949682
104665:-0.00098362
104673:-0.00112506
104674:-7.06057e-05
104675:-0.000213308
104676:-0.000544223
104679:0.000514142
104680:-0.000178891
104681:-0.00366037
104688:0.000336521
104689:-0.000314718
104690:-5.48583e-05
104691:-0.0009222
104692:-5.7805e-05
104693:-0.000663776
104695:0.000293792
104696:-0.000559818
104697:-0.000507648
104704:-9.99988e-05
104705:-0.000688135
104706:-0.000230252
104707:-0.000132399
104708:-0.000143933
104709:-0.000839822
104710:-0.000685018
104711:0.00042872
104712:-0.000209095
104713:-0.000755076
104720:-0.000653887
104721:-0.000310733
104722:-1.31262e-05
104723:0.000192177
104724:1.75601e-05
104725:-0.00108972
104726:-0.000395118
104727:0.000130607
104728:-0.000142056
104729:-0.000569548
104736:-0.000394683
104737:-0.000561451
104738:-7.93951e-05
104739:3.35363e-05
104740:0.000193543
104741:-0.000564784
104742:-0.000437986
104743:0.000114748
104744:-0.000110742
104745:-0.000596514
104752:-3.75514e-05
104753:-0.000683977
104754:-9.9532e-05
104755:0.000120433
104756:3.05363e-05
104757:-0.000354691
104758:-0.000353731
104759:0.000206433
104760:3.85775e-05
104761:-0.000329102
104768:-6.49687e-05
104769:-0.00057257
104770:2.67119e-05
104771:1.01254e-05
104772:0.000132974
104773:-1.12916e-05
104774:-0.000234128
104775:0.000460742
104776:0.000164221
104777:-0.000516917
104784:-5.42999e-05
104785:-0.000511764
104786:1.26647e-05
104787:-0.000209632
104788:-9.00744e-05
104789:0.000117784
104790:-0.000108021
104791:0.000403475
104792:-5.6192e-05
104793:-0.000310158
104800:1.76498e-06
104801:-0.000609171
104802:-2.06956e-06
104803:-0.000199735
104804:-1.7487e-05
104805:6.06668e-05
104806:-0.000202645
104807:0.000262062
104808:0.000172452
104809:-0.000290983
104816:4.31263e-05
104817:-0.000251241
104818:0.000209522
104819:-7.82013e-05
104820:-0.000209942
104821:0.000101558
104822:-0.000251588
104823:0.00022434
104824:0.000101526
104825:-0.000282341
104832:-4.5496e-05
104833:-0.000169936
104834:0.000132661
104835:-0.000120748
104836:-0.000195924
104837:0.000208604
104838:-0.000185335
104839:0.000300439
104840:7.43685e-05
104841:-0.000309279
104848:3.03575e-05
104849:-0.000109016
104850:-6.8149e-05
104851:-2.81823e-05
104852:-0.000455816
104853:-7.29595e-05
104854:-0.00015273
104855:0.000303208
104856:0.000129206
104857:-0.000180442
104864:-1.67497e-05
104865:-5.5881e-05
104866:-2.1283e-05
104867:-0.000120288
104868:-0.000414438
104869:-0.000202698
104870:-0.000249944
104871:0.000141436
104872:0.000103777
104873:0.00016498
104880:6.17029e-05
104881:-6.67578e-05
104882:8.02038e-05
104883:1.86797e-05
104884:-0.000633372
104885:-0.000255106
104886:-0.000398294
104887:0.000112092
104888:-0.000133129
104889:0.000346
104896:0.000197611
104897:-0.000208486
104898:7.78491e-05
104899:7.54167e-05
104900:-0.000673812
104901:-0.000198083
104902:-0.000407668
104903:0.000146007
104904:-2.25466e-05
104905:0.000451991
104912:0.000394205
104913:-0.000267269
104914:-7.36113e-05
104915:7.18717e-05
104916:-0.000386883
104917:-0.000118337
104918:-0.000460048
104919:9.77611e-05
104920:1.58808e-05
104921:0.000244257
104928:0.000304645
104929:-8.80299e-05
104930:-0.000100752
104931:0.000122944
104932:-0.000182342
104933:-2.09067e-05
104934:-0.000570084
104935:0.00024876
104936:-0.000206432
104937:-1.38824e-05
104944:0.000238435
104945:-0.000116768
104946:-0.000120467
104947:0.000199482
104948:-8.51749e-05
104949:-5.90306e-05
104950:-0.00101405
104951:0.000225273
104952:-0.000108499
104953:-7.85368e-05
104960:0.000104389
104961:-0.00020773
104962:4.24592e-05
104963:9.56965e-05
104964:3.91172e-05
104965:-1.30574e-05
104966:-0.00112812
104967:0.000159172
104968:0.000107411
104969:-0.000254511
104976:6.40172e-05
104977:-0.000262544
104978:2.74195e-05
104979:0.00011687
104980:-9.39669e-05
104981:0.000107203
104982:-0.000958314
104983:0.000124209
104984:6.68888e-05
104985:-0.00015982
104992:7.79926e-05
104993:-0.000147807
104994:-4.25509e-05
104995:2.76436e-05
104996:-8.68642e-05
104997:0.000177502
104998:-0.000740931
104999:1.89073e-05
105000:0.000143809
105001:-8.9973e-06
105008:2.51254e-05
105009:-0.000268021
105010:3.11293e-05
105011:-1.99268e-05
105012:-1.13719e-05
105013:9.27137e-05
105014:-0.00087938
105015:0.000217127
105016:0.000297385
105017:-0.000255015
105024:3.78907e-05
105025:-0.000765746
105026:-0.000227355
105027:-0.0009454
105028:-1.5412e-05
105029:0.000467535
105030:-0.00115743
105031:8.68991e-05
105032:0.000224112
105033:-0.000629811
105040:-0.000785133
105041:-0.000998553
105042:-0.00151175
105043:-0.00176578
105044:-0.000433741
105045:0.000868629
105046:-0.00112172
105047:-0.000430054
105048:5.92863e-05
105049:-0.000965075
105056:-0.00162518
105057:-0.000947731
105058:-0.000680972
105059:-0.000907545
105060:-0.00047763
105061:0.00103745
105062:-0.00075819
105063:-0.000883191
105064:-0.000666218
105065:-0.000867152
105072:-0.0015207
105073:-0.00052667
105074:-0.000671585
105075:-0.000831177
105076:-0.000458643
105077:0.000477968
105078:-0.000103988
105079:-0.000970595
105080:0.000134664
105081:-0.00129481
105088:-0.000447744
105089:-0.000450351
105092:-0.000241108
105093:-9.29359e-05
105094:-0.000324819
105095:-0.000291744
105096:0.000448552
105097:-0.000488995
105107:-0.00082871
105108:-0.000162157
105111:0.000202822
105121:-0.000215598
105122:-0.00039375
105123:-0.000336255
105124:-0.000475847
105125:-0.000158637
105126:-0.000206533
105127:0.00026576
105128:-0.000310041
105129:-0.000316055
105136:0.000763097
105137:-0.000335592
105138:-0.000325073
105139:-0.000441248
105140:-0.000147033
105141:-0.000728551
105142:-0.00166146
105143:0.000512366
105144:-0.000528273
105145:-0.000670574
105152:-0.000270646
105153:-0.00169149
105154:-0.00024708
105155:-6.10608e-05
105156:-0.00056186
105157:-0.000998429
105158:-0.000642292
105159:0.000501233
105160:-0.000510787
105161:-0.000489527
105168:-0.000636291
105169:-0.000219773
105170:-7.42049e-07
105171:0.000217727
105172:-0.000160647
105173:-0.000838544
105174:-0.000293202
105175:0.000292999
105176:3.7127e-05
105177:-0.000679445
105184:-0.0001116
105185:-0.000494564
105186:0.000271361
105187:6.35575e-05
105188:-1.49692e-06
105189:-0.000215284
105190:-0.000413888
105191:0.000284056
105192:1.4123e-05
105193:-0.000409331
105200:0.000105598
105201:-0.00050467
105202:6.99331e-06
105203:0.000195073
105204:-0.000149094
105205:-7.57486e-05
105206:-0.00016244
105207:0.00012524
105208:0.000169262
105209:-2.82333e-05
105216:-6.7738e-05
105217:-0.00034544
105218:3.41257e-05
105219:0.000147937
105220:5.56176e-05
105221:7.91946e-05
105222:5.38885e-05
105223:0.000175635
105224:7.21195e-05
105225:-0.000230725
105232:-2.63567e-05
105233:-0.000252011
105234:-3.80668e-05
105235:-8.58435e-05
105236:-0.000192336
105237:0.000211707
105238:0.000114813
105239:0.000168154
105240:0.000203691
105241:-0.000256089
105248:-5.66775e-05
105249:-0.000381367
105250:0.000143074
105251:-0.000180236
105252:-0.000152815
105253:0.000214541
105254:-0.000228753
105255:7.66172e-05
105256:0.000225235
105257:-0.000144966
105264:4.37083e-05
105265:-0.000230003
105266:0.000171054
105267:-0.000326049
105268:-0.000222336
105269:0.000134674
105270:-0.000247116
105271:9.42094e-05
105272:0.000266004
105273:-9.99795e-05
105280:-8.96585e-05
105281:-3.25169e-05
105282:0.000194101
105283:-0.000564464
105284:-0.00022367
105285:0.000322698
105286:-0.000173061
105287:0.000262
105288:0.000242663
105289:-0.000105827
105296:-8.83116e-05
105297:-2.36567e-05
105298:6.56558e-05
105299:-0.000412975
105300:-0.000183748
105301:4.6906e-05
105302:-9.64623e-05
105303:0.000363737
105304:0.000192128
105305:-9.1664e-05
105312:2.6893e-05
105313:9.57321e-05
105314:0.00011758
105315:-0.000232912
105316:-0.000179834
105317:-8.29352e-05
105318:-0.000327905
105319:0.000290553
105320:2.76804e-05
105321:-2.81623e-05
105328:4.58913e-05
105329:0.000289171
105330:0.000188302
105331:1.23788e-05
105332:-0.000762428
105333:-0.00025178
105334:-0.000307976
105335:0.000388513
105336:-0.000240287
105337:0.000265694
105344:0.000112174
105345:0.000374467
105346:7.7045e-05
105347:0.000196514
105348:-0.000546845
105349:-0.000392027
105350:-0.000405764
105351:0.000343477
105352:-0.000436911
105353:0.000158009
105360:0.000363386
105361:0.000167878
105362:-5.58228e-05
105363:0.000165601
105364:-0.000100321
105365:-0.000346798
105366:-0.000585865
105367:0.000321321
105368:-0.000340813
105369:-0.000279094
105376:0.000362518
105377:-7.96094e-05
105378:3.55228e-05
105379:0.000188605
105380:-0.000101926
105381:-0.000197666
105382:-0.000949658
105383:0.000387593
105384:-8.33578e-05
105385:-0.000228562
105392:0.000318473
105393:-0.00012694
105394:0.000131368
105395:4.43874e-05
105396:-9.21655e-05
105397:-0.000291689
105398:-0.00101396
105399:0.000220527
105400:-7.01446e-05
105401:-0.00011352
105408:0.000230608
105409:-0.000358307
105410:2.28284e-05
105411:8.11865e-05
105412:0.000137304
105413:-0.000337957
105414:-0.000822146
105415:0.000175795
105416:0.00011186
105417:-0.000278155
105424:0.000149317
105425:-0.000413509
105426:-4.24899e-05
105427:0.000350536
105428:-2.3679e-05
105429:-0.000175031
105430:-0.000485626
105431:0.000144323
105432:9.93833e-06
105433:-0.000165858
105440:0.000102407
105441:-0.000117905
105442:-0.000116333
105443:0.000347072
105444:-2.5626e-05
105445:0.000204209
105446:-0.000447134
105447:0.000149289
105448:0.000306626
105449:-0.000247405
105456:-2.86651e-05
105457:-0.000506811
105458:-6.52251e-05
105459:0.000228276
105460:-5.85203e-05
105461:0.000345321
105462:-0.000599224
105463:0.000210258
105464:0.000404358
105465:-0.000305023
105472:0.000196558
105473:-0.000788764
105474:-0.000333434
105475:-0.000689079
105476:-0.000221888
105477:0.000661802
105478:-0.000785964
105479:0.000145877
105480:0.000361179
105481:-0.000500221
105488:-0.000527653
105489:-0.00100113
105490:-0.00134616
105491:-0.00230457
105492:-0.000937959
105493:0.00163091
105494:-0.00108572
105495:-0.000385572
105496:-5.42198e-05
105497:-0.00105504
105504:-0.0016109
105505:-0.00152586
105506:-0.000797843
105507:-0.000952446
105508:-0.000779923
105509:0.00210216
105510:-0.00141291
105511:-0.000803567
105512:-0.00077631
105513:-0.00101565
105520:-0.0015394
105521:-0.000560156
105522:-0.000614456
105523:-0.000561528
105524:-0.00061613
105525:0.00091432
105526:-0.000780551
105527:-0.000496643
105528:-0.000177242
105529:-0.00109461
105536:-0.000463299
105537:-0.000259363
105540:-0.0214595
105541:0.000559558
105542:-0.018709
105543:9.85635e-05
105544:-9.94079e-05
105545:-0.000546915
105556:-0.000139415
105559:0.000174408
105569:4.32447e-05
105570:-0.00043858
105571:-0.000295958
105572:-0.00245012
105573:-0.00301131
105574:-0.00179023
105575:0.00023211
105576:-0.000466099
105577:-0.00209509
105584:0.000256456
105585:-0.000665446
105586:-0.000197058
105587:-0.000267189
105588:-0.000232333
105589:-0.000457519
105590:-0.000359058
105591:0.00047543
105592:-0.000482458
105593:-0.000524064
105600:-0.00011874
105601:-0.000309045
105602:-0.000242018
105603:0.000286416
105604:-0.000597894
105605:-0.000891997
105606:-0.000981491
105607:0.00038751
105608:-0.000948303
105609:-0.000382379
105616:-0.00026496
105617:-0.000123248
105618:-8.74952e-05
105619:0.000287571
105620:-0.000193528
105621:-0.000308751
105622:-0.000337085
105623:0.000485786
105624:0.000124412
105625:-0.000476042
105632:5.20599e-06
105633:-0.000514937
105634:0.000169185
105635:0.000157273
105636:-0.000303197
105637:-0.000145498
105638:-0.000209001
105639:0.00032908
105640:-2.43937e-05
105641:-5.89588e-05
105648:4.55097e-05
105649:-0.000478619
105650:0.000217591
105651:0.000109742
105652:-0.000255987
105653:8.96668e-05
105654:-6.82108e-05
105655:7.00531e-05
105656:0.000233224
105657:2.22666e-05
105664:1.22202e-05
105665:-0.000545085
105666:-4.45501e-05
105667:2.7685e-05
105668:-2.98088e-05
105669:0.000197331
105670:7.09064e-05
105671:8.22842e-07
105672:0.000300807
105673:-0.000120863
105680:-5.63779e-05
105681:-0.000244184
105682:0.000122955
105683:-0.000402523
105684:-8.59062e-05
105685:0.000269241
105686:9.48254e-05
105687:-5.73382e-05
105688:0.000242713
105689:4.15713e-05
105696:3.75575e-06
105697:-0.000349022
105698:2.69726e-05
105699:-0.000725869
105700:-3.63243e-05
105701:0.000340095
105702:-0.000152634
105703:-7.90634e-05
105704:0.000307077
105705:-1.7902e-05
105712:-0.000141783
105713:-0.000258193
105714:-1.6832e-05
105715:-0.000848016
105716:-9.26536e-05
105717:0.000411637
105718:-0.000125412
105719:-4.22543e-05
105720:0.000433674
105721:9.33242e-05
105728:-0.000100229
105729:-0.000105889
105730:-3.74938e-06
105731:-0.000794047
105732:-0.000282804
105733:0.000429731
105734:-0.000132253
105735:-3.50086e-05
105736:0.00027765
105737:0.000191919
105744:-6.77717e-05
105745:3.94313e-05
105746:-0.000232428
105747:-0.000491036
105748:-9.72297e-07
105749:0.000369767
105750:-0.000220087
105751:6.01534e-05
105752:0.000328849
105753:-8.16639e-05
105760:-8.33082e-05
105761:0.000211351
105762:-0.000193242
105763:-3.08096e-05
105764:-0.000437559
105765:0.000303253
105766:-4.91167e-05
105767:0.0004673
105768:-2.70157e-05
105769:-0.000147768
105776:-7.29841e-05
105777:0.000694033
105778:-0.000203792
105779:0.000239135
105780:-0.000914755
105781:-2.90385e-05
105782:-0.000185363
105783:0.000373858
105784:-0.000467816
105785:-0.000151605
105792:-0.000144925
105793:0.000786847
105794:-0.000279024
105795:0.00024144
105796:-0.00028635
105797:-0.000102048
105798:-0.000496493
105799:0.000385542
105800:-0.000705206
105801:-0.000304005
105808:7.62093e-05
105809:0.000432844
105810:-0.000107188
105811:0.000324235
105812:-6.59606e-05
105813:-0.000490638
105814:-0.000625985
105815:0.000596598
105816:-0.000366631
105817:-0.00022212
105824:0.000412586
105825:-1.36783e-05
105826:0.000127029
105827:0.000154721
105828:1.81478e-06
105829:-0.000594062
105830:-0.0007145
105831:0.00035923
105832:-0.000144465
105833:-0.000221331
105840:0.000286907
105841:-0.000241233
105842:0.000143508
105843:0.000198753
105844:-9.74186e-05
105845:-0.000451864
105846:-0.000562674
105847:0.000256404
105848:-2.15111e-05
105849:-7.22935e-05
105856:0.000156566
105857:-0.000307732
105858:5.55711e-05
105859:0.000193524
105860:9.35094e-05
105861:-0.000627617
105862:-0.000537132
105863:0.00023269
105864:0.000104692
105865:4.3475e-06
105872:0.000212784
105873:-0.000283719
105874:3.11147e-05
105875:0.000342334
105876:-0.000180074
105877:-0.000555538
105878:-0.000307347
105879:0.000354867
105880:0.000121531
105881:-0.000136324
105888:0.00018658
105889:-0.000191552
105890:-4.05327e-05
105891:0.000258278
105892:-0.000158198
105893:-0.0003084
105894:-0.000372951
105895:0.000178626
105896:0.00030518
105897:-6.68301e-05
105904:0.000268544
105905:-0.000410976
105906:-2.72311e-05
105907:0.000239743
105908:-0.000106819
105909:-0.000105689
105910:-0.000445649
105911:0.000267456
105912:0.000429898
105913:-2.08318e-05
105920:0.000425731
105921:-0.00080246
105922:-0.000121712
105923:-0.000338715
105924:-0.000446537
105925:0.000341296
105926:-0.000205515
105927:-3.48348e-05
105928:0.00051757
105929:-0.000223523
105936:-0.000180789
105937:-0.00110373
105938:-0.00064382
105939:-0.00133877
105940:-0.000762039
105941:0.00135289
105942:-0.00048144
105943:-0.000276771
105944:-0.000163117
105945:-0.00119857
105952:-0.00142847
105953:-0.000433729
105954:-0.000596275
105955:-0.000455152
105956:-0.000734455
105957:0.00248033
105958:-0.00107723
105959:-0.000175814
105960:-0.000649774
105961:-0.000468724
105968:-0.000874738
105969:-0.000658097
105970:-0.000452526
105972:-0.00170742
105973:0.00135124
105974:-0.000879858
105975:-0.000352083
105976:-0.00059843
105977:-0.000915361
105985:-2.53047e-05
105989:0.00045315
105991:0.000484866
105992:-6.29128e-05
105993:-0.000432089
106004:-0.00129725
106007:0.00162257
106016:0.00159296
106018:-0.00158367
106019:-0.000285489
106020:-0.00041271
106021:-0.000434674
106023:0.000527217
106024:-0.000450357
106025:-0.000419744
106032:-0.000940871
106033:1.62999e-05
106034:-0.000406793
106035:-0.000201249
106036:-0.000524788
106037:-0.000551997
106039:0.000728256
106040:-0.000342658
106041:-0.000850806
106048:-0.000278358
106049:-0.000111429
106050:-0.000613681
106051:0.000309565
106052:-0.000380836
106053:-0.000496508
106054:-0.000684995
106055:0.000633519
106056:-0.000945374
106057:-0.000872885
106064:-0.000646575
106065:7.83301e-05
106066:-0.000134721
106067:0.000113551
106068:-0.000388696
106069:-0.000139324
106070:-0.000398515
106071:0.000406777
106072:-0.000226409
106073:-0.000415107
106080:-0.000132526
106081:-0.000262715
106082:0.000140979
106083:-0.000271532
106084:-0.000251695
106085:-2.12066e-05
106086:-7.53623e-05
106087:0.000122767
106088:0.000116932
106089:0.00022795
106096:3.20769e-05
106097:-0.000399404
106098:-0.000248834
106099:-0.000304475
106100:-0.000149147
106101:0.000358725
106102:0.000121074
106103:-3.68099e-05
106104:0.000337725
106105:0.000113117
106112:7.36456e-05
106113:-0.000376178
106114:-0.000574888
106115:-0.000615646
106116:-8.77448e-05
106117:0.000250811
106118:0.000121271
106119:5.74235e-05
106120:0.000440811
106121:0.00013751
106128:-6.71863e-05
106129:-0.000428516
106130:-0.000804345
106131:-0.000760348
106132:-6.37456e-05
106133:0.000257152
106134:8.67972e-05
106135:-2.91768e-05
106136:0.000302863
106137:0.000431593
106144:-0.000122048
106145:-0.000433061
106146:-0.00078133
106147:-0.000561167
106148:0.000139516
106149:0.000181877
106150:5.69557e-05
106151:-8.95925e-06
106152:0.000325002
106153:0.000304836
106160:-0.000149429
106161:-0.000187792
106162:-0.000842644
106163:-0.000472612
106164:0.000125223
106165:0.000314488
106166:-3.21937e-06
106167:1.30532e-05
106168:0.000373112
106169:0.000250521
106176:-6.79361e-05
106177:-0.000180525
106178:-0.000954025
106179:-0.000413179
106180:6.75847e-05
106181:0.000406793
106182:-0.00015143
106183:-2.00488e-05
106184:0.000273175
106185:0.000139998
106192:-0.000131122
106193:-0.000191716
106194:-0.000963744
106195:-2.92718e-05
106196:0.00020774
106197:0.000363495
106198:6.67507e-05
106199:-3.33688e-05
106200:0.000460164
106201:-0.000132256
106208:-0.000129058
106209:0.000207492
106210:-0.00088112
106211:0.000181375
106212:-0.000592587
106213:0.000231683
106214:0.00016645
106215:0.000211687
106216:0.000531724
106217:-0.00022999
106224:-0.00051182
106225:0.000780093
106226:-0.000773219
106227:0.00028715
106228:-0.00104793
106229:-2.73457e-05
106230:-0.000233071
106231:0.000128364
106232:4.58319e-05
106233:-0.000336473
106240:-0.00068129
106241:0.000865711
106242:-0.000485472
106243:0.000262891
106244:2.78778e-05
106245:-2.35499e-06
106246:-0.000470421
106247:0.000377243
106248:-0.000246342
106249:-2.42109e-05
106256:-0.000494132
106257:0.000363684
106258:-0.000289719
106259:0.000313376
106260:0.000277522
106261:-0.000124025
106262:-0.000295164
106263:0.000382894
106264:-0.000249691
106265:2.95819e-05
106272:-9.32656e-06
106273:-4.38701e-05
106274:-0.00011946
106275:0.000304785
106276:6.03075e-05
106277:-0.000386343
106278:-0.000181936
106279:0.00033782
106280:-0.000137502
106281:7.98168e-05
106288:0.000105633
106289:-8.72281e-05
106290:-5.37193e-05
106291:0.000302064
106292:-0.00012777
106293:-0.000596821
106294:-0.000192009
106295:0.000257598
106296:9.5465e-05
106297:0.000125685
106304:0.000229852
106305:-0.000248077
106306:0.000105453
106307:0.000247576
106308:-4.14636e-05
106309:-0.000775318
106310:-0.000259168
106311:5.51595e-05
106312:0.000115533
106313:0.000247063
106320:0.000202884
106321:-0.000186347
106322:8.45673e-06
106323:0.000102229
106324:-0.00034483
106325:-0.00132528
106326:-0.000333642
106327:0.000100446
106328:9.76545e-05
106329:0.00040067
106336:0.000237784
106337:-0.000424326
106338:-1.64029e-05
106339:-0.000280276
106340:-0.000258533
106341:-0.0014016
106342:-8.66171e-05
106343:3.32836e-05
106344:0.000216158
106345:0.000474998
106352:0.000202695
106353:-0.000375687
106354:-0.000215427
106355:-0.00044289
106356:-0.000345263
106357:-0.00123335
106358:9.8157e-05
106359:0.000149667
106360:0.000577037
106361:0.000278274
106368:0.000366753
106369:-0.000393377
106370:-0.000347746
106371:-0.000578393
106372:-0.000624299
106373:-0.000868766
106374:0.000277108
106375:-0.00037499
106376:0.000500479
106377:-0.000144621
106384:6.97091e-06
106385:-0.000687232
106386:-0.000387302
106387:-0.00109849
106388:-0.00113244
106389:3.74598e-05
106390:-2.71996e-05
106391:-0.000731333
106392:0.000543761
106393:-0.000837422
106400:-0.000866884
106401:-0.000248189
106402:0.000271866
106403:-0.000169543
106404:-0.00111976
106405:0.0020103
106406:-0.000862183
106407:-0.00052132
106408:-0.000327022
106409:-0.00108588
106416:-0.000348131
106417:-0.000333843
106418:-0.000649615
106420:-0.000743468
106421:0.00116505
106422:-0.000666583
106423:-0.000455064
106424:0.000193084
106425:-0.00101536
106432:-0.000188926
106433:0.000604043
106434:-0.000367184
106436:-0.00288279
106437:0.0004207
106438:4.56308e-05
106439:0.00289745
106440:0.000282684
106441:-0.000554186
106457:-0.000685372
106464:0.000109621
106467:-0.000199409
106468:-0.000276129
106469:-0.000410114
106470:-0.000981711
106471:0.000399673
106472:-0.00253254
106473:-0.00052802
106480:-0.000590441
106481:-0.000139805
106482:-0.0010327
106483:-0.000507615
106484:-0.000669685
106485:-0.000571489
106486:-0.000887919
106487:0.000682602
106488:-0.00127953
106489:-0.00114118
106496:-0.000393503
106497:2.02116e-05
106498:-0.000495606
106499:-0.000200793
106500:-0.000548086
106501:-0.000184806
106502:-0.000635737
106503:0.0010061
106504:-0.000177849
106505:-0.000728915
106512:-0.000652833
106513:-3.69856e-05
106514:-0.00042468
106515:-0.00021827
106516:-0.00054593
106517:3.20243e-05
106518:-0.000571031
106519:0.00062315
106520:-0.000141908
106521:3.64747e-05
106528:-3.78054e-05
106529:-0.000373281
106530:-0.000495275
106531:-0.000456265
106532:-0.000160058
106533:0.000109151
106534:-0.000217225
106535:-7.76614e-05
106536:0.000281762
106537:0.000374537
106544:0.00014605
106545:-0.000106836
106546:-0.00116484
106547:-0.000624985
106548:-6.13943e-05
106549:0.0005228
106550:8.60203e-05
106551:-0.000104188
106552:0.000259144
106553:0.000313791
106560:2.91578e-05
106561:-0.000108525
106562:-0.00136358
106563:-0.000596443
106564:0.000105893
106565:0.000217397
106566:0.000135306
106567:0.000130389
106568:0.000179236
106569:0.000224178
106576:5.8254e-06
106577:-0.000212069
106578:-0.00112138
106579:-0.000365816
106580:0.000133941
106581:5.09431e-05
106582:0.000129759
106583:3.59993e-05
106584:0.000149826
106585:0.000321788
106592:-5.08552e-05
106593:-0.000170729
106594:-0.000914202
106595:-0.000334666
106596:0.000264115
106597:2.97789e-05
106598:0.000100231
106599:-0.000190934
106600:0.000188978
106601:0.000273456
106608:-2.76964e-05
106609:-0.000512637
106610:-0.00111601
106611:-6.34324e-05
106612:0.000442519
106613:0.000221403
106614:5.82944e-05
106615:-0.000190439
106616:-0.000111844
106617:0.00025219
106624:-7.66882e-05
106625:-0.000471327
106626:-0.000906483
106627:-0.000144986
106628:0.000705211
106629:0.000209348
106630:0.00013499
106631:-0.000155978
106632:-6.4562e-05
106633:4.22676e-05
106640:-9.98408e-06
106641:-0.000282573
106642:-0.000860053
106643:0.000218061
106644:0.000700753
106645:0.000416197
106646:0.000317926
106647:-0.000489733
106648:0.000381428
106649:-0.00010267
106656:-0.00015926
106657:0.00023068
106658:-0.000635016
106659:0.000241504
106660:-0.000177057
106661:0.000245982
106662:0.000164504
106663:-0.000723086
106664:0.000453903
106665:1.87947e-05
106672:-0.000702624
106673:0.00092615
106674:-0.000799699
106675:0.000299468
106676:-0.000500062
106677:-0.000112872
106678:-0.000357434
106679:-0.00068139
106680:8.26877e-05
106681:0.000138098
106688:-0.00091792
106689:0.00072991
106690:-0.000603277
106691:0.00025846
106692:0.000314183
106693:-9.43102e-05
106694:-0.000216526
106695:5.56595e-05
106696:0.000138247
106697:0.000298655
106704:-0.000666566
106705:0.000192685
106706:-0.00037108
106707:0.000285329
106708:0.000461532
106709:-0.000308004
106710:1.02029e-05
106711:0.000274987
106712:9.68351e-05
106713:0.000175299
106720:-0.000196738
106721:5.79442e-05
106722:-0.000360354
106723:9.44222e-05
106724:5.88952e-05
106725:-0.000460876
106726:-1.77314e-05
106727:0.000189254
106728:2.70514e-05
106729:0.00029364
106736:5.11656e-05
106737:-3.64644e-05
106738:-6.02077e-05
106739:7.92426e-06
106740:-0.000153166
106741:-0.000179107
106742:5.98315e-05
106743:6.93591e-05
106744:6.83924e-05
106745:0.000347156
106752:0.00012052
106753:-0.000318784
106754:0.000155585
106755:-9.20799e-05
106756:-0.000149036
106757:-0.000362016
106758:-0.000141429
106759:-9.56049e-05
106760:0.000292593
106761:0.000506558
106768:0.000154743
106769:-0.000252598
106770:4.24498e-05
106771:-0.000255227
106772:-0.000285022
106773:-0.000771749
106774:-2.17723e-05
106775:-0.000108996
106776:0.000314145
106777:0.000514353
106784:0.000186075
106785:-0.00032949
106786:1.80178e-05
106787:-0.000763616
106788:-7.00324e-05
106789:-0.00146279
106790:0.000352548
106791:-4.463e-05
106792:0.000511916
106793:0.000587593
106800:0.000309637
106801:-0.000126533
106802:-0.000425084
106803:-0.00104753
106804:-0.000243212
106805:-0.00203231
106806:0.00034613
106807:5.20966e-05
106808:0.00035003
106809:0.000387734
106816:0.000412341
106817:-5.53096e-05
106818:-0.000771787
106819:-0.00104501
106820:-0.000655285
106821:-0.00245879
106822:0.00057387
106823:-0.000580378
106824:0.00034374
106825:0.000191008
106832:0.000201999
106833:-0.000364612
106834:-0.000193112
106835:-0.000640295
106836:-0.000537682
106837:-0.00234645
106838:0.000265983
106839:-0.000598884
106840:0.000490277
106841:-0.000919518
106848:-0.000268686
106849:-0.000524523
106850:0.000855475
106851:0.000381985
106852:-0.00061606
106853:0.00011493
106854:-0.000457486
106855:-0.000303604
106856:5.10948e-05
106857:-0.00127018
106864:-0.00015153
106865:-0.000569428
106866:0.000559119
106868:-0.000387782
106869:0.000702499
106870:-0.000691554
106871:-0.000138865
106872:0.000105971
106873:-0.000764042
106880:-0.000162853
106881:-4.12179e-05
106882:0.000125965
106884:-0.00116529
106885:-0.00142073
106886:-0.00028727
106887:0.000683851
106888:-0.000704814
106889:-0.000752155
106899:-0.000515964
106903:-6.01785e-05
106905:-0.00156343
106912:0.000309629
106915:-0.000179399
106916:-0.000324146
106917:-0.00254384
106918:-0.00024926
106919:0.000298455
106921:-0.00133528
106928:0.000208056
106929:-7.21824e-05
106930:-0.000799118
106931:-0.000379477
106932:-0.000646941
106933:-0.00051984
106934:-0.00266334
106935:0.000705187
106936:-0.000264106
106937:-0.000722755
106944:-0.000330218
106945:0.000411209
106946:-0.000413329
106947:-0.000163219
106948:-0.000614198
106949:-4.95674e-07
106950:-0.000508782
106951:0.000863199
106952:4.54523e-05
106953:-0.000305217
106960:-0.000319961
106961:5.64499e-05
106962:-0.000829353
106963:-0.000523239
106964:-0.000385269
106965:0.000236264
106966:-0.0005867
106967:0.000464384
106968:-0.000199026
106969:0.000196829
106976:2.51336e-05
106977:-0.000136994
106978:-0.0012287
106979:-0.000563414
106980:7.06782e-06
106981:0.000201523
106982:-3.01505e-05
106983:6.65218e-05
106984:-0.000103652
106985:0.000391692
106992:0.00034224
106993:-9.11972e-05
106994:-0.00128379
106995:-0.000327781
106996:0.000329285
106997:0.000141966
106998:0.000242928
106999:-2.00816e-06
107000:-7.51446e-05
107001:0.000330717
107008:0.000210665
107009:-0.000119833
107010:-0.00100884
107011:-0.000262282
107012:0.000353731
107013:7.25407e-05
107014:0.000101613
107015:-6.76666e-05
107016:-0.000224851
107017:0.000251669
107024:0.000159433
107025:-1.74223e-05
107026:-0.000563504
107027:-0.000104044
107028:0.000300071
107029:2.2778e-05
107030:0.000120478
107031:-0.000207159
107032:-0.000173632
107033:0.00026346
107040:0.00013385
107041:-0.000467972
107042:-0.000490828
107043:-0.000209453
107044:0.000448947
107045:0.000166736
107046:0.000175284
107047:-0.00032106
107048:-0.000228618
107049:0.000379325
107056:0.000235382
107057:-0.000918176
107058:-0.000184274
107059:-0.000195626
107060:0.000601609
107061:9.89551e-05
107062:0.000269324
107063:-0.000276869
107064:-0.000424229
107065:0.000173618
107072:-0.000136853
107073:-0.000796522
107074:-0.000254847
107075:-8.85297e-05
107076:0.00087117
107077:0.000401952
107078:0.000178948
107079:-0.000567079
107080:8.94051e-05
107081:6.71343e-05
107088:-4.71597e-05
107089:-0.000272966
107090:-0.000108163
107091:0.000386906
107092:0.000472531
107093:0.00038822
107094:0.000319265
107095:-0.00103525
107096:0.000530425
107097:6.28042e-05
107104:-0.000411543
107105:0.000319628
107106:-0.000113787
107107:0.000283925
107108:-0.000422363
107109:7.3543e-05
107110:-0.000102618
107111:-0.00113029
107112:0.000314287
107113:0.000128349
107120:-0.000892704
107121:0.000751389
107122:-0.000511341
107123:4.16504e-05
107124:-0.000307949
107125:-0.000276342
107126:-0.000236258
107127:-0.000827987
107128:-0.00016408
107129:0.000271252
107136:-0.00111371
107137:0.000488615
107138:-0.000401846
107139:-5.34002e-06
107140:0.000183396
107141:-0.000250177
107142:0.000177766
107143:-0.000129903
107144:0.000168765
107145:0.000375485
107152:-0.000665917
107153:0.000177612
107154:-0.000284109
107155:0.000350535
107156:0.000290794
107157:-0.000514288
107158:-3.51009e-05
107159:1.86232e-05
107160:0.000155613
107161:0.000377856
107168:-0.000146084
107169:0.000160222
107170:-0.000181913
107171:8.85169e-05
107172:0.000264787
107173:-0.000514679
107174:-0.000178969
107175:-3.85203e-05
107176:-8.73785e-05
107177:0.000239872
107184:-4.33755e-05
107185:-0.000329729
107186:-0.000133404
107187:-0.000154113
107188:2.97872e-05
107189:-0.000166561
107190:-6.1167e-06
107191:-0.000140774
107192:-0.00011659
107193:0.000341369
107200:-0.000127849
107201:-0.000549325
107202:-8.54121e-05
107203:-0.000376235
107204:-8.18912e-05
107205:1.31798e-05
107206:4.28394e-05
107207:-0.000229579
107208:0.000111002
107209:0.000492352
107216:-3.99367e-05
107217:-0.000777229
107218:-6.45948e-05
107219:-0.000414045
107220:0.000176729
107221:3.15576e-05
107222:0.000127643
107223:1.8454e-05
107224:0.000210267
107225:0.000184063
107232:5.70291e-05
107233:-0.000566967
107234:-6.85261e-05
107235:-0.000713252
107236:0.000214837
107237:-0.000407174
107238:0.000329929
107239:3.06185e-05
107240:0.000119324
107241:0.000341213
107248:0.000399679
107249:-0.00067834
107250:-0.000349731
107251:-0.000999564
107252:9.97342e-05
107253:-0.00108866
107254:0.00030578
107255:1.04173e-05
107256:9.29162e-05
107257:7.29928e-05
107264:0.000388885
107265:-0.00052704
107266:-0.000555508
107267:-0.000771141
107268:-0.000396552
107269:-0.00215168
107270:0.000650347
107271:-0.000515661
107272:-0.000275644
107273:-0.000568343
107280:0.000135218
107281:-0.000528516
107282:0.000114184
107283:-0.000396709
107284:-0.000607407
107285:-0.0024973
107286:0.000241265
107287:-0.000194292
107288:-0.000252844
107289:-0.000992473
107296:-1.41529e-05
107297:-0.000628848
107298:0.000868576
107299:-0.000379037
107300:-0.000300968
107301:-0.000926051
107302:-0.000380871
107303:-5.22494e-06
107304:-3.81762e-05
107305:-0.000820629
107312:-0.000204491
107313:-0.00052743
107314:0.00108407
107315:-0.000997448
107316:-0.000464123
107317:0.000220732
107318:-0.000850116
107319:-0.000174806
107320:4.45556e-05
107321:-0.000715068
107328:-0.000603874
107330:0.000323098
107331:-0.000700478
107332:-0.000203611
107333:-0.000155328
107334:-0.000335855
107335:-0.000193698
107336:-0.000205359
107337:-0.000110079
107347:-0.000400671
107349:0.000451011
107353:-0.000457587
107362:-0.00083431
107363:3.22928e-05
107364:-0.000235064
107367:0.000457979
107369:-0.00233537
107376:-0.000216701
107377:0.00354528
107378:-0.00428806
107379:-0.000474997
107380:-0.00047631
107383:0.000827799
107384:-0.000537264
107385:-0.000712431
107392:-0.00050637
107393:0.000487297
107394:-0.00040938
107395:-9.20632e-05
107396:-0.000241162
107397:-2.60898e-05
107398:-0.000120826
107399:0.000369982
107400:2.90327e-05
107401:0.00011723
107408:-0.000141992
107409:0.000283647
107410:-0.000566529
107411:-0.000445124
107412:0.000282304
107413:0.000177023
107414:-0.000577892
107415:6.31791e-05
107416:-0.000540306
107417:0.00016066
107424:0.000251183
107425:-7.10821e-05
107426:-0.000980425
107427:-0.000327822
107428:0.00041932
107429:-0.00032157
107430:-0.000198331
107431:-8.62631e-05
107432:-0.000541743
107433:0.000151382
107440:0.000200903
107441:-0.000170374
107442:-0.00057336
107443:-0.000354369
107444:0.000515949
107445:-0.00023312
107446:0.000219385
107447:-0.000289397
107448:-0.000619576
107449:8.21885e-05
107456:0.000377005
107457:-0.000497625
107458:-0.000246785
107459:-0.000228397
107460:0.000606797
107461:-0.000191952
107462:0.000235187
107463:-0.00027513
107464:-0.00054957
107465:0.000146106
107472:0.000242269
107473:-0.000246134
107474:-4.14701e-05
107475:-3.12899e-05
107476:0.000342254
107477:7.21259e-06
107478:0.000100281
107479:-0.000184721
107480:-0.000579905
107481:0.00015045
107488:0.000267575
107489:-0.000394049
107490:5.58692e-06
107491:-5.39198e-05
107492:0.000310538
107493:0.000239945
107494:0.000201891
107495:-0.000374324
107496:-0.000499961
107497:0.000203462
107504:0.000229807
107505:-0.000907943
107506:-0.000115397
107507:-0.000334677
107508:0.0003747
107509:0.000340955
107510:0.000332526
107511:-0.000415794
107512:-0.000346364
107513:0.000156014
107520:0.000158907
107521:-0.000734559
107522:6.64675e-05
107523:-2.44544e-05
107524:0.000570504
107525:9.03993e-05
107526:0.000393517
107527:-0.000585347
107528:0.000371069
107529:0.000265415
107536:2.58353e-05
107537:-8.91458e-05
107538:0.000254449
107539:0.000367898
107540:0.00026121
107541:0.000170553
107542:0.000156183
107543:-0.000822525
107544:0.000490908
107545:0.000233305
107552:-0.000385615
107553:0.00034444
107554:1.01656e-05
107555:2.29863e-05
107556:-0.000273829
107557:-0.000189021
107558:-0.000305485
107559:-0.000851729
107560:9.62172e-05
107561:0.00011832
107568:-0.00104444
107569:0.000525982
107570:-0.000208987
107571:-0.000204207
107572:-0.000173763
107573:-0.000254176
107574:-6.16986e-05
107575:-0.000553151
107576:6.86518e-06
107577:5.36203e-05
107584:-0.000857675
107585:0.000350192
107586:-0.000211769
107587:5.2758e-05
107588:0.000139122
107589:-7.86167e-05
107590:0.000123667
107591:-0.000128074
107592:4.39712e-05
107593:0.000217153
107600:-0.000606204
107601:0.000151725
107602:-2.68748e-05
107603:0.000211923
107604:0.000375633
107605:-0.000249907
107606:-7.11115e-05
107607:3.24324e-07
107608:0.00018359
107609:0.000245498
107616:-5.37658e-05
107617:-0.000144909
107618:-0.000192204
107619:-5.72587e-05
107620:0.00042576
107621:-0.000327764
107622:-0.000262796
107623:5.68832e-07
107624:-0.000113035
107625:0.000142171
107632:-0.000105865
107633:-0.000730299
107634:-0.000268645
107635:-0.000134872
107636:0.000134216
107637:-0.000168741
107638:-0.000106172
107639:0.000154228
107640:-0.000208439
107641:1.60142e-05
107648:-0.000177831
107649:-0.000753093
107650:-0.000293589
107651:-0.000206636
107652:0.000322009
107653:-0.000224529
107654:6.12425e-05
107655:0.00039125
107656:-0.00018215
107657:-1.96979e-05
107664:8.77464e-05
107665:-0.000316016
107666:-0.000244935
107667:-0.000206921
107668:0.000278279
107669:-1.33428e-05
107670:0.000184465
107671:0.000308812
107672:-0.000151945
107673:0.000103543
107680:0.000162798
107681:-9.19676e-05
107682:-0.000388582
107683:-2.77117e-05
107684:9.31808e-05
107685:-0.000140689
107686:0.00029658
107687:0.000250204
107688:-0.000191855
107689:3.44863e-05
107696:0.000170162
107697:-0.000310232
107698:-0.000418292
107699:-0.000283222
107700:1.3349e-05
107701:-0.000132892
107702:0.000375369
107703:0.000379975
107704:-0.000404039
107705:-0.000180806
107712:0.000207378
107713:-0.000311767
107714:-0.000479306
107715:-0.000257462
107716:-0.000259124
107717:-0.00106586
107718:0.0002513
107719:0.000173556
107720:-0.000746501
107721:-0.000616369
107728:0.00016349
107729:-0.000119537
107730:-0.000127622
107731:-0.000159705
107732:-0.000655521
107733:-0.000900585
107734:2.00394e-05
107735:-0.000174347
107736:-0.000570981
107737:-0.00148552
107744:-0.000202128
107745:-2.98189e-05
107746:0.000590896
107747:-0.000769534
107748:-0.00043625
107749:-0.00101311
107750:4.21629e-05
107751:-6.98927e-05
107752:-6.89265e-05
107753:-0.000215193
107760:-0.000476569
107761:9.10094e-05
107762:0.00115672
107763:-0.000528077
107764:-0.000703662
107765:-0.000661657
107766:-0.000870537
107767:-0.000705157
107768:-0.000479603
107769:-0.0003073
107778:0.00131094
107779:-0.000942728
107780:-0.00183214
107781:-0.0127856
107782:-0.00131477
107783:-0.0159488
107784:-0.00184886
107785:-0.000623717
107795:-0.00122364
107797:6.13714e-05
107799:0.00575519
107801:-0.00139763
107824:-0.000316082
107825:0.000712491
107826:-0.000776588
107827:2.00111e-05
107828:0.000261747
107829:-0.0166429
107831:4.72503e-05
107833:-0.000921962
107840:-0.000779856
107841:0.000810792
107842:-6.85698e-05
107843:0.000297828
107844:5.34254e-05
107845:-0.000115641
107846:-0.000192327
107847:0.000186379
107848:-0.000608933
107849:-8.92857e-05
107856:2.32067e-05
107857:0.00135849
107858:-9.44599e-05
107859:-0.000139578
107860:0.000349673
107861:-2.44092e-06
107862:-0.00070237
107863:-0.000123361
107864:-0.000313201
107865:0.000222294
107872:0.000319213
107873:-0.000376555
107874:0.000196517
107875:-0.000225822
107876:0.000237789
107877:-0.000471301
107878:-0.000383019
107879:-0.000285944
107880:-0.000624174
107881:-0.000105008
107888:0.000149715
107889:-0.000646588
107890:0.00024783
107891:-0.000401634
107892:0.000288566
107893:-0.00052643
107894:5.22347e-05
107895:-0.00024525
107896:-0.000810545
107897:-0.000113875
107904:0.000396782
107905:-0.000266498
107906:8.58026e-05
107907:-0.000355796
107908:0.000344402
107909:-0.000443032
107910:0.000321945
107911:-0.000344789
107912:-0.000780872
107913:-6.77257e-05
107920:0.000299804
107921:-0.000278731
107922:7.3784e-05
107923:-0.000286582
107924:0.000378282
107925:-5.0499e-05
107926:0.000135869
107927:-0.000501269
107928:-0.000588301
107929:5.82386e-05
107936:0.000376379
107937:-0.000426089
107938:7.06147e-05
107939:-0.000127399
107940:0.000339371
107941:0.0001941
107942:0.000188707
107943:-0.000487067
107944:-0.000315248
107945:8.25115e-06
107952:0.000357965
107953:-0.000640373
107954:-1.27947e-06
107955:-0.000193149
107956:0.000204801
107957:0.000150454
107958:0.000299346
107959:-0.000634321
107960:-4.3226e-05
107961:0.000229653
107968:8.41568e-05
107969:-0.000237983
107970:0.000105569
107971:1.28568e-05
107972:0.000313065
107973:0.000133906
107974:0.000411524
107975:-0.000617983
107976:0.000272462
107977:0.000366342
107984:-2.07976e-05
107985:5.96286e-05
107986:9.92753e-05
107987:0.00034405
107988:0.000272498
107989:8.30249e-05
107990:0.000178565
107991:-0.000468081
107992:0.000229561
107993:0.000271585
108000:-0.000823141
108001:0.000422224
108002:6.28596e-05
108003:8.86138e-05
108004:-8.13363e-05
108005:-0.000325557
108006:-0.00013661
108007:-0.0006403
108008:0.000316849
108009:-4.90472e-05
108016:-0.00126002
108017:0.000487227
108018:-0.000145325
108019:-9.21874e-05
108020:5.38587e-05
108021:-0.000403953
108022:0.000149063
108023:-0.000426831
108024:1.71151e-05
108025:-0.000310506
108032:-0.000810723
108033:0.000143005
108034:-7.76802e-06
108035:0.00011019
108036:0.000426081
108037:-0.000289138
108038:0.000183429
108039:-5.76655e-05
108040:3.75519e-05
108041:-7.58883e-05
108048:-0.000456021
108049:0.000181204
108050:9.82874e-05
108051:-4.77518e-05
108052:0.000456905
108053:-0.000243286
108054:-6.64255e-05
108055:-8.07302e-05
108056:-2.08816e-05
108057:0.000252003
108064:-0.000205882
108065:-0.000421339
108066:-0.0001556
108067:-0.000262506
108068:0.000284561
108069:-0.000230035
108070:-0.000127546
108071:0.000337845
108072:-0.000489073
108073:9.46887e-05
108080:-0.000147524
108081:-0.000772984
108082:-0.000219965
108083:-6.31793e-05
108084:5.42342e-05
108085:3.56499e-05
108086:-0.000173777
108087:0.000413207
108088:-0.000383817
108089:-4.10709e-05
108096:-0.000161874
108097:-0.000989453
108098:-0.000196317
108099:3.4232e-05
108100:0.00033597
108101:-0.000127434
108102:-5.33315e-05
108103:0.000373638
108104:-0.000308907
108105:-0.00016199
108112:0.000170372
108113:-0.00089707
108114:-0.000266331
108115:0.000192823
108116:0.000127755
108117:-0.000193584
108118:0.000312787
108119:0.000405965
108120:-0.000415386
108121:-0.000150691
108128:7.03807e-05
108129:-0.00010154
108130:-0.000213356
108131:0.000326454
108132:-8.53293e-05
108133:-0.000188846
108134:0.000349732
108135:0.000523007
108136:-0.000560536
108137:-0.000316753
108144:7.21758e-05
108145:-0.000403738
108146:-0.0002338
108147:0.000530538
108148:0.000225699
108149:-5.16405e-05
108150:0.000117279
108151:0.000481453
108152:-0.000527258
108153:-8.08257e-05
108160:0.000141946
108161:-0.000256105
108162:-0.000285113
108163:0.000332382
108164:-5.96293e-05
108165:-3.53017e-05
108166:0.000120819
108167:0.000133929
108168:-0.000760377
108169:-0.000760253
108176:0.00022268
108177:-0.000342804
108178:9.2585e-05
108179:7.3622e-05
108180:-0.000806134
108181:-0.000196247
108182:-9.61619e-05
108183:-0.000255341
108184:-0.000552287
108185:-0.00152352
108192:-0.000268215
108193:-0.00023923
108194:0.000660699
108195:-0.000531583
108196:-0.000719559
108197:-0.000666915
108198:-5.50124e-05
108199:-0.000501907
108200:-0.000165199
108201:-0.000439045
108208:-0.000552117
108209:-0.000121763
108210:0.000899706
108211:-0.000266862
108212:-0.000278668
108213:-0.000612334
108214:-0.000893329
108215:-0.000346647
108216:-0.00100212
108217:-0.000227269
108224:-0.000933116
108225:-0.000210132
108226:0.000778568
108228:-0.00023284
108229:-0.00109256
108230:-0.000903904
108232:-0.00202645
108233:-0.00640027
108245:-0.00120671
108247:0.00100716
108258:-0.00049664
108259:0.00050901
108264:-0.00491833
108272:-0.000272048
108273:0.00063219
108274:-0.0003317
108275:0.000544536
108276:-0.00038176
108277:-0.000458439
108279:-0.000188687
108280:-0.0114791
108281:-0.00111595
108288:-0.000605195
108290:0.000418073
108291:0.000590732
108292:-0.00036513
108293:6.41561e-06
108294:-0.000553056
108295:-0.000118284
108296:-0.000162527
108297:-0.000248439
108304:-0.000154454
108305:-1.22751e-05
108306:0.000319182
108307:7.0654e-05
108308:-0.000315252
108309:2.59567e-05
108310:-0.000284298
108311:1.72443e-05
108312:-0.000370266
108313:0.000327313
108320:0.00028882
108321:-0.000292206
108322:0.000445457
108323:-1.72383e-05
108324:2.03663e-05
108325:-0.000333384
108326:-0.000385393
108327:-0.000156841
108328:-0.000548605
108329:-1.57094e-05
108336:0.000142832
108337:-0.000509747
108338:0.000417783
108339:-0.000303124
108340:0.000149604
108341:-0.00059478
108342:9.45311e-05
108343:-2.54171e-05
108344:-0.000386486
108345:-0.000125379
108352:0.000341824
108353:-0.000504879
108354:0.000166121
108355:-0.000264938
108356:0.000422744
108357:-0.000687968
108358:0.000167909
108359:0.000101738
108360:-7.4108e-05
108361:-0.000104153
108368:0.000329291
108369:-0.000476515
108370:-2.03228e-05
108371:-0.000511959
108372:0.000412916
108373:-0.000517924
108374:-1.44595e-05
108375:-0.00019839
108376:-5.08811e-05
108377:0.000134838
108384:0.000317279
108385:-0.000138047
108386:5.00707e-05
108387:-0.00025462
108388:0.000242075
108389:-0.000290041
108390:0.000165647
108391:-0.000367598
108392:1.58759e-05
108393:0.000109528
108400:0.000280309
108401:-0.000360599
108402:9.63769e-05
108403:-0.000161206
108404:8.3797e-05
108405:-3.64463e-05
108406:0.000222724
108407:-0.00046647
108408:0.000116862
108409:0.000318814
108416:6.686e-05
108417:-0.000169851
108418:9.6827e-05
108419:-0.00014537
108420:-2.24214e-05
108421:-6.27093e-05
108422:0.000470128
108423:-0.000683294
108424:5.22138e-05
108425:0.000328126
108432:-0.000443386
108433:-0.000109469
108434:0.000224349
108435:0.00018573
108436:7.28691e-05
108437:4.84605e-05
108438:-7.1616e-06
108439:-0.000317011
108440:0.000306207
108441:0.000182536
108448:-0.00128539
108449:0.000384983
108450:6.65321e-05
108451:8.9887e-05
108452:3.73152e-05
108453:-0.00022062
108454:-0.000191147
108455:-0.000366921
108456:0.000196602
108457:-0.000257246
108464:-0.00104748
108465:0.000518905
108466:-5.77149e-05
108467:-0.000249356
108468:0.000377112
108469:-0.000413108
108470:6.23637e-05
108471:-0.00032483
108472:-0.00013658
108473:-0.000437488
108480:-0.000564906
108481:-7.28666e-05
108482:0.000138376
108483:-0.000294944
108484:0.000516944
108485:-0.000294527
108486:-4.99966e-05
108487:-4.58365e-05
108488:0.00010111
108489:-0.000127378
108496:-0.000364118
108497:-0.000136562
108498:0.000176363
108499:-0.000243216
108500:0.00041096
108501:-0.000393505
108502:-0.000196432
108503:-7.01692e-05
108504:-6.55069e-06
108505:0.000125908
108512:-6.97911e-05
108513:-0.000703264
108514:1.73762e-05
108515:-0.000108655
108516:0.000347543
108517:-7.86857e-05
108518:-0.000267075
108519:0.000204277
108520:-0.000382344
108521:-3.35301e-05
108528:-8.41902e-05
108529:-0.000726541
108530:-0.000142711
108531:0.000149958
108532:0.000281756
108533:-8.19134e-05
108534:-4.411e-06
108535:0.000263388
108536:-0.000502811
108537:-7.49584e-05
108544:1.07121e-06
108545:-0.000651434
108546:-9.49971e-05
108547:0.000231892
108548:0.000211951
108549:-5.3534e-05
108550:0.000170658
108551:0.00028296
108552:-0.000378629
108553:-0.000171086
108560:9.74095e-05
108561:-0.000677662
108562:-0.000168869
108563:0.000280824
108564:0.000262309
108565:-2.95942e-05
108566:0.000211674
108567:0.000371632
108568:-0.000263008
108569:-0.000122962
108576:-1.14616e-05
108577:-0.000305276
108578:6.46871e-05
108579:0.000325563
108580:0.00024046
108581:-0.000189408
108582:0.000120041
108583:0.000344959
108584:-0.000289747
108585:-0.00035744
108592:-6.05334e-05
108593:-0.000195908
108594:9.38388e-06
108595:0.000477441
108596:0.000103711
108597:-1.52963e-06
108598:1.36639e-05
108599:0.0001233
108600:-0.000543191
108601:-0.000193533
108608:5.20497e-05
108609:-0.000404009
108610:-4.98342e-05
108611:0.000299602
108612:-9.95404e-07
108613:0.000252569
108614:-0.000106544
108615:-0.000276571
108616:-0.000135298
108617:-0.000688204
108624:-5.88645e-05
108625:-0.00025276
108626:0.00021579
108627:0.000121161
108628:-0.000480048
108629:0.000100332
108630:-7.33107e-05
108631:-0.000429347
108632:-0.000392375
108633:-0.00128907
108640:-0.000554844
108641:-0.000528848
108642:0.000903639
108643:-0.00139444
108644:-0.000843478
108645:-0.000719746
108646:-0.00030037
108647:-0.000666257
108648:-0.000732596
108649:-0.000887069
108656:-0.000881237
108657:-0.00013043
108658:0.0010555
108659:-0.000481627
108660:-0.000475074
108661:-0.000970364
108662:-0.000994226
108663:-0.000659429
108664:-0.000527882
108665:-0.000174813
108672:1.41566e-05
108674:0.000916721
108676:-6.77298e-05
108677:-0.000512383
108678:-0.000658191
108679:-0.00111502
108680:-0.00110532
108681:-0.00607646
108706:-0.000642985
108707:0.000669471
108712:-0.000324817
108720:-0.000176639
108722:-0.000281768
108723:0.000497404
108724:-0.000163003
108725:-0.000500323
108726:-0.000571335
108727:-0.00014169
108728:-0.00078253
108729:-0.000441119
108736:-0.000759236
108737:-0.000115466
108738:0.000184308
108739:0.000967347
108740:-0.000616845
108741:-0.000312777
108742:-0.000634704
108743:-0.000291663
108744:-0.000168654
108745:-0.000303112
108752:1.8377e-05
108753:-0.000121914
108754:0.000261759
108755:0.00033612
108756:-0.000528529
108757:0.000164496
108758:-0.000672705
108759:7.15866e-05
108760:-0.00030179
108761:-0.000279239
108768:0.000134739
108769:-0.000529439
108770:0.00049147
108771:3.26823e-06
108772:-0.000121667
108773:4.6536e-05
108774:-0.000312671
108775:-5.18405e-05
108776:-0.000613116
108777:-5.56463e-05
108784:0.000109318
108785:-0.000795534
108786:0.000398879
108787:-0.000192826
108788:5.40838e-05
108789:0.000301446
108790:-0.000100838
108791:-6.62818e-05
108792:-0.000249852
108793:-0.000162899
108800:0.000176749
108801:-0.000552265
108802:0.000185969
108803:-0.000190448
108804:0.000354449
108805:-0.000253012
108806:8.73711e-05
108807:-0.000217059
108808:0.000153121
108809:-3.6734e-06
108816:0.000241156
108817:-8.23727e-05
108818:0.000140823
108819:-0.000341767
108820:0.000391109
108821:-0.000543116
108822:0.000175809
108823:-0.000247174
108824:0.000358114
108825:0.000133306
108832:0.000245403
108833:-0.000219594
108834:0.0001374
108835:-0.000724968
108836:0.000132714
108837:-0.000562292
108838:0.000141773
108839:-0.000418149
108840:0.000310904
108841:0.000185619
108848:0.000319388
108849:-0.00011827
108850:8.66565e-05
108851:-0.000924163
108852:-0.000216766
108853:-0.0007689
108854:0.000417845
108855:-0.000754094
108856:3.09653e-05
108857:0.000268714
108864:5.52342e-05
108865:-0.00036727
108866:0.000113194
108867:-0.000867686
108868:-0.000226878
108869:-0.000570297
108870:0.000420316
108871:-0.000350044
108872:0.000290812
108873:0.000170244
108880:-0.00039145
108881:-4.48148e-05
108882:0.000206171
108883:-0.000552943
108884:0.000104982
108885:-0.000661554
108886:0.000110612
108887:-0.000175577
108888:0.000537671
108889:2.54337e-05
108896:-0.00105576
108897:0.000390507
108898:0.000143783
108899:-0.000548941
108900:0.000440445
108901:-0.000504146
108902:3.79685e-05
108903:-0.000114431
108904:7.46499e-05
108905:-0.000193661
108912:-0.000837204
108913:0.000469283
108914:0.000162641
108915:-0.000660759
108916:0.00057686
108917:-0.000596483
108918:3.58029e-05
108919:-8.05793e-05
108920:-5.73213e-05
108921:-0.000270497
108928:-0.000527722
108929:-2.9126e-05
108930:0.000359996
108931:-0.000380757
108932:0.000377365
108933:-0.000308675
108934:-0.000294318
108935:1.51619e-05
108936:-5.03475e-05
108937:5.82535e-05
108944:-0.000233658
108945:-0.000378164
108946:0.000146728
108947:-7.47949e-05
108948:0.000365385
108949:-9.18858e-05
108950:-0.000264328
108951:-0.000161258
108952:-0.000208408
108953:-5.88492e-05
108960:-5.59015e-05
108961:-0.000692293
108962:-6.1658e-05
108963:0.000173052
108964:0.000220266
108965:9.4726e-05
108966:-5.41103e-05
108967:-2.62501e-05
108968:-0.000176243
108969:-8.13929e-05
108976:-0.000108423
108977:-0.000371319
108978:-3.44248e-06
108979:0.000170512
108980:0.000229213
108981:2.07416e-05
108982:0.000112593
108983:0.000118436
108984:-0.000198793
108985:-1.20419e-05
108992:-1.8949e-05
108993:-0.000185818
108994:-0.000173232
108995:0.000355975
108996:-2.64914e-05
108997:-4.04108e-05
108998:0.000245119
108999:-3.80256e-05
109000:-0.000225262
109001:-0.000108745
109008:-0.000129569
109009:-0.000166084
109010:-0.000121448
109011:0.00015112
109012:4.02595e-06
109013:7.98443e-06
109014:0.000165033
109015:4.41798e-05
109016:-5.33444e-05
109017:-7.77026e-05
109024:-5.93007e-05
109025:-0.000118111
109026:-7.82069e-05
109027:0.000289764
109028:3.69269e-05
109029:4.22623e-05
109030:5.66132e-05
109031:-1.03334e-05
109032:-0.000171352
109033:-0.000174779
109040:0.000170118
109041:-0.000316172
109042:3.29764e-05
109043:0.0005406
109044:-0.000219406
109045:1.81815e-06
109046:4.86035e-05
109047:-0.000137054
109048:5.92624e-05
109049:-0.00037672
109056:2.1109e-05
109057:-0.000542939
109058:0.000148959
109059:0.000243038
109060:-4.79031e-05
109061:0.000363383
109062:-6.47513e-05
109063:-0.000244053
109064:0.000106993
109065:-0.000842394
109072:-7.35052e-05
109073:-0.000569767
109074:0.000468424
109075:-0.000155875
109076:-0.000434013
109077:0.000281216
109078:-0.00031834
109079:-0.000299271
109080:-4.16371e-05
109081:-0.00119546
109088:-0.000637108
109089:-0.00073345
109090:0.0013518
109091:-0.00176667
109092:-0.00100468
109093:-0.000932902
109094:-0.000520622
109095:-0.000216152
109096:-0.00133494
109097:-0.000609595
109104:-0.00127521
109105:-0.000163152
109106:0.000774509
109107:-0.000711227
109108:-0.000306829
109109:-0.000547332
109110:-0.000700633
109111:7.46986e-05
109112:-0.00048836
109113:-0.000292755
109120:4.34935e-05
109121:-0.000339805
109122:0.00121613
109123:-0.000323383
109124:-0.000991282
109125:-0.00094401
109126:-0.000930616
109127:-0.000448223
109128:-0.000228981
109129:-0.000851138
109136:-0.000752355
109138:-0.0112772
109139:-0.00145987
109140:-0.00158708
109143:0.000884228
109145:0.000960687
109154:-0.00286215
109155:0.00232266
109157:-0.00180123
109160:-0.00286978
109168:-0.000289088
109169:-0.000798109
109170:-0.0006131
109171:0.000704694
109172:-0.000129258
109173:-0.000917732
109174:-0.000247509
109175:0.000203103
109176:-0.00130785
109177:-0.000568959
109184:-0.00104569
109185:-0.000146762
109186:-0.00021251
109187:0.000799503
109188:-0.000418378
109189:-0.000259833
109190:-0.000540612
109191:7.83966e-05
109192:-0.000637429
109193:-0.000513763
109200:-0.000126625
109201:-0.000465739
109202:0.000335216
109203:0.000250492
109204:-0.00041845
109205:0.000248309
109206:-0.000522768
109207:0.0001239
109208:-0.000475242
109209:-0.000522093
109216:-7.69514e-05
109217:-0.00101618
109218:0.000387506
109219:8.85553e-05
109220:-0.000164412
109221:0.000315709
109222:-0.000294751
109223:-0.00014761
109224:-0.000300104
109225:-0.000562233
109232:-7.10566e-06
109233:-0.0012054
109234:0.000405682
109235:-5.80251e-05
109236:-8.43811e-05
109237:0.000539959
109238:-0.000238857
109239:-0.000648811
109240:-0.000114974
109241:-2.14235e-05
109248:0.000141468
109249:-0.000437056
109250:0.000324787
109251:-0.000131903
109252:8.71855e-05
109253:0.000147613
109254:9.61984e-05
109255:-0.000395297
109256:0.000103132
109257:6.76264e-05
109264:0.000326857
109265:-2.73857e-05
109266:0.000166893
109267:-0.000196194
109268:0.000150381
109269:-0.000208289
109270:0.000218729
109271:-0.000375471
109272:0.00026838
109273:2.53808e-05
109280:0.00030629
109281:-0.000208122
109282:0.000204329
109283:-0.00068161
109284:5.99236e-05
109285:-0.000504836
109286:0.000277895
109287:-0.000607729
109288:0.0003995
109289:5.96099e-05
109296:0.0003904
109297:-0.000279317
109298:0.000159203
109299:-0.000831765
109300:-0.000392243
109301:-0.000800832
109302:0.000417062
109303:-0.000523818
109304:0.000347448
109305:0.000137413
109312:0.000115382
109313:-0.000259605
109314:-7.43544e-06
109315:-0.000856475
109316:-0.000333146
109317:-0.000664353
109318:0.000535205
109319:-0.000226625
109320:0.000503011
109321:0.000131608
109328:-0.000315904
109329:-2.92654e-06
109330:0.000307129
109331:-0.000954828
109332:8.26352e-05
109333:-0.000259244
109334:0.00041707
109335:-0.000150143
109336:0.000315331
109337:-2.38726e-05
109344:-0.000854994
109345:0.000336412
109346:0.000285651
109347:-0.000921929
109348:0.000366854
109349:-0.000126504
109350:0.000108418
109351:2.55686e-05
109352:-4.50375e-05
109353:-0.000179778
109360:-0.000641276
109361:0.000226944
109362:0.000351088
109363:-0.000774694
109364:0.000460077
109365:-7.31187e-05
109366:1.10004e-05
109367:-1.49368e-05
109368:-0.000263716
109369:-4.27839e-05
109376:-0.000229332
109377:-0.000188101
109378:0.000240933
109379:-0.000205421
109380:0.000212774
109381:-7.31935e-05
109382:0.000135455
109383:-0.000114125
109384:-7.73966e-05
109385:-3.76131e-05
109392:-0.000231554
109393:-0.000461946
109394:0.000165667
109395:0.000259715
109396:5.54937e-05
109397:-4.0215e-05
109398:0.000164344
109399:-0.000281775
109400:-4.96829e-05
109401:-0.000142557
109408:-0.000112334
109409:-0.000246575
109410:0.000153066
109411:0.000259496
109412:-0.000211758
109413:9.9885e-05
109414:0.000136802
109415:-0.000255055
109416:-0.000177469
109417:-3.24206e-05
109424:-0.000109131
109425:1.20193e-05
109426:9.89349e-05
109427:0.000212773
109428:-0.000209908
109429:-1.75762e-05
109430:0.000227405
109431:-8.58531e-05
109432:-0.000128378
109433:-0.000142811
109440:-0.000113332
109441:-4.34828e-06
109442:-1.48346e-06
109443:0.000241535
109444:-0.000153103
109445:-1.38566e-06
109446:0.000166667
109447:-0.000191388
109448:-5.05063e-06
109449:-8.85667e-05
109456:-0.000284572
109457:4.95401e-05
109458:5.13363e-05
109459:6.94296e-05
109460:-4.18078e-05
109461:0.000118277
109462:-6.28736e-05
109463:-0.000255114
109464:-0.000144296
109465:-3.26776e-05
109472:-2.50266e-05
109473:-5.5449e-05
109474:3.29797e-05
109475:0.000308583
109476:-4.12586e-05
109477:0.00016728
109478:-1.37018e-05
109479:-0.000246046
109480:-0.000122203
109481:-0.00027046
109488:3.46293e-05
109489:-0.000384463
109490:0.00013636
109491:0.00043671
109492:-0.000406891
109493:0.000109735
109494:0.00010514
109495:-0.000539615
109496:4.93165e-05
109497:-0.000326509
109504:-8.50132e-05
109505:-0.000396677
109506:0.000346907
109507:1.66212e-05
109508:-0.000272776
109509:0.000370022
109510:-4.38427e-06
109511:-0.000596515
109512:-9.65128e-05
109513:-0.000654271
109520:-0.000106787
109521:-0.000245528
109522:0.000752344
109523:-0.000556037
109524:-0.000528614
109525:0.000107135
109526:-0.000529891
109527:-0.000470004
109528:-0.000512545
109529:-0.000772549
109536:-0.000414922
109537:-8.44295e-05
109538:0.00104104
109539:-0.000900391
109540:-0.00129696
109541:-0.000864423
109542:-0.000432175
109543:-0.00029562
109544:-0.00158814
109545:-0.000764116
109552:-0.000445551
109553:-0.000281492
109554:0.000620824
109555:-0.000719353
109556:-0.00018442
109557:-0.000369103
109558:-0.000773219
109559:0.00102362
109560:-0.000863531
109561:-0.00141869
109568:-0.000451503
109569:0.000254901
109570:0.000305342
109571:-0.000970387
109572:-0.000983404
109573:-0.000564865
109574:-0.000810693
109576:-0.000353228
109577:-0.00107116
109586:-0.0022559
109600:0.000948496
109601:-0.000207762
109602:-0.000992778
109604:-0.000525129
109605:-0.000784397
109607:0.00100472
109608:-0.000636339
109609:-0.000942074
109616:-0.000126738
109617:-5.93734e-05
109618:-0.000499294
109619:0.000126036
109620:-0.00016548
109621:4.61465e-05
109622:-0.00108305
109623:7.94413e-05
109624:-0.00446797
109625:-0.000639996
109632:-0.000729324
109633:-0.000298042
109634:-0.000420792
109635:0.000570245
109636:-0.000212724
109637:-0.000114174
109638:-0.00040061
109639:5.95067e-05
109640:-0.000652298
109641:-0.000624908
109648:-0.000204148
109649:-0.000643747
109650:0.000144676
109651:0.000485826
109652:-0.000377125
109653:5.75162e-05
109654:-0.000321459
109655:-3.50006e-05
109656:-0.000678335
109657:-0.0006321
109664:-0.000107026
109665:-0.00114268
109666:0.000245795
109667:0.00019321
109668:9.02628e-05
109669:-7.72184e-05
109670:-0.000407148
109671:-0.000645183
109672:-0.000131534
109673:-0.000358685
109680:-2.33618e-06
109681:-0.000512677
109682:0.000198421
109683:-4.66957e-05
109684:-0.000238162
109685:0.000139826
109686:-0.000252173
109687:-0.000822693
109688:-0.000187334
109689:-0.000147112
109696:6.30393e-05
109697:-0.00023405
109698:0.000292717
109699:-7.77815e-05
109700:-0.000332694
109701:0.000137454
109702:-7.26977e-05
109703:-0.000777391
109704:-1.90658e-05
109705:-0.000146468
109712:0.000232242
109713:-0.00023219
109714:0.00023434
109715:-8.1821e-05
109716:-0.000518462
109717:0.00020607
109718:6.61834e-05
109719:-0.000516521
109720:0.000138381
109721:-0.000285788
109728:0.000191966
109729:-0.000117685
109730:0.000231936
109731:-0.000288012
109732:-0.000566065
109733:0.000300744
109734:0.000237029
109735:-0.000470922
109736:0.000336437
109737:-0.000518589
109744:0.000334745
109745:-0.000125342
109746:0.000260247
109747:-0.00017308
109748:-0.000569202
109749:0.000136564
109750:0.00042994
109751:-0.000262477
109752:0.000280961
109753:-0.000288739
109760:0.000281572
109761:-4.41676e-05
109762:0.00024111
109763:-0.000443829
109764:-0.000502298
109765:0.000130235
109766:0.000674576
109767:-0.000161613
109768:0.000159363
109769:-3.25301e-05
109776:8.19551e-05
109777:-2.80464e-05
109778:0.000170203
109779:-0.000402278
109780:-0.000442501
109781:0.00016088
109782:0.000582833
109783:5.29941e-05
109784:-8.01865e-05
109785:-0.000252333
109792:-0.000347058
109793:0.000175942
109794:0.00026402
109795:-0.000407549
109796:-0.0001157
109797:0.000107692
109798:0.000207844
109799:-4.56103e-05
109800:-0.000455382
109801:-0.000227106
109808:-0.000311138
109809:-3.99564e-05
109810:0.000302621
109811:-0.000458991
109812:5.73923e-05
109813:-4.09669e-05
109814:0.000184802
109815:-3.02857e-05
109816:-0.000391487
109817:-0.000226728
109824:-0.000252169
109825:-0.000111534
109826:0.000248529
109827:-0.000183513
109828:2.70588e-05
109829:3.98081e-05
109830:0.00020414
109831:-0.000141715
109832:-5.05712e-05
109833:-0.000273022
109840:-0.000242717
109841:-6.65479e-05
109842:0.000121712
109843:7.08282e-05
109844:-0.000170915
109845:-0.000118104
109846:0.000223298
109847:-0.000306716
109848:4.93258e-05
109849:-0.000206907
109856:-0.000185191
109857:-5.85984e-05
109858:9.1116e-05
109859:0.000201694
109860:-0.000233343
109861:-7.63268e-05
109862:8.931e-05
109863:-0.000389565
109864:-5.67199e-05
109865:-0.000144888
109872:-0.00015606
109873:0.000201336
109874:8.31848e-05
109875:0.000199916
109876:-0.000221664
109877:3.85105e-05
109878:9.52285e-05
109879:-0.000437547
109880:-0.000166859
109881:-0.000255536
109888:-0.000197241
109889:0.000162652
109890:3.54019e-05
109891:0.000139464
109892:-0.000345532
109893:2.63954e-05
109894:6.90311e-05
109895:-0.000326272
109896:-0.000111927
109897:-0.000142734
109904:-6.50254e-05
109905:7.29275e-05
109906:0.000113675
109907:5.10658e-05
109908:-0.000328791
109909:9.84135e-05
109910:1.03864e-05
109911:-0.000414448
109912:-0.000166285
109913:-9.93744e-05
109920:-4.09158e-05
109921:-0.000217517
109922:0.000126566
109923:7.46352e-05
109924:-0.000229769
109925:0.000105887
109926:-0.000122557
109927:-0.00064394
109928:-9.22698e-05
109929:-0.00031104
109936:2.81749e-05
109937:-0.000424989
109938:0.000150956
109939:5.02261e-05
109940:-0.000763313
109941:0.000241173
109942:3.02633e-06
109943:-0.000817322
109944:0.000177751
109945:-0.000406438
109952:-0.000120505
109953:-0.000296706
109954:0.000321545
109955:-0.000224651
109956:-0.000522494
109957:0.000403364
109958:-0.000241535
109959:-0.00101662
109960:0.000113611
109961:-0.000547599
109968:-0.000259076
109969:-0.00020017
109970:0.000658287
109971:-0.000707201
109972:-0.00052277
109973:0.000136542
109974:-0.000703838
109975:-0.000688611
109976:-0.000675926
109977:-0.00051995
109984:-0.00050189
109985:-6.12166e-05
109986:0.00108073
109987:-0.00139121
109988:-0.000657156
109989:-0.000803915
109990:-0.000835285
109991:-0.000297722
109992:-0.00138804
109993:-0.000456146
110000:-0.000563464
110001:-0.0002249
110002:0.000895448
110003:-0.000647658
110005:-0.000625293
110006:-0.000614162
110008:-0.00057866
110009:-0.000313883
110016:-0.000330896
110017:0.00035824
110018:-0.000453468
110021:-0.000371653
110022:-0.000482158
110024:-0.000867091
110048:0.000376447
110049:-0.000108994
110050:-0.000574599
110055:2.31798e-05
110056:-0.00332372
110057:-0.00548098
110064:-0.00023948
110065:-6.26836e-05
110066:-9.0467e-05
110067:0.000129866
110068:-0.000215584
110069:-8.30488e-05
110070:-0.000649772
110071:-5.6347e-05
110072:-0.000221346
110073:-0.000371676
110080:-0.000713951
110081:-0.000174707
110082:-0.000195994
110083:0.000809693
110084:-0.000188529
110085:-0.000189887
110086:-0.000398705
110087:-0.000380685
110088:-0.000620855
110089:-0.000546489
110096:-0.000231539
110097:-0.000289491
110098:0.000136107
110099:0.000343528
110100:-0.000512591
110101:2.46805e-05
110102:-0.000322961
110103:-0.000450604
110104:-0.000483177
110105:-0.000376923
110112:-5.02378e-05
110113:-0.000577315
110114:0.00023465
110115:0.000270133
110116:-0.00026296
110117:0.000182464
110118:-0.000469109
110119:-0.000757919
110120:-5.90522e-05
110121:-7.51578e-05
110128:-3.28535e-07
110129:-0.000101855
110130:0.000301254
110131:6.70561e-05
110132:-0.000288753
110133:-5.07541e-05
110134:-0.000356336
110135:-0.000862692
110136:7.30598e-05
110137:-0.000252907
110144:-6.47801e-06
110145:-3.59368e-05
110146:0.000372054
110147:-1.3402e-06
110148:-0.000595362
110149:-7.75778e-06
110150:-6.39923e-05
110151:-0.000918406
110152:0.000154771
110153:-0.000472466
110160:0.00017768
110161:1.44112e-05
110162:0.000262491
110163:-1.83013e-05
110164:-0.000731394
110165:0.000171683
110166:-6.90119e-05
110167:-0.000541291
110168:-7.16099e-05
110169:-0.000671794
110176:0.000233835
110177:-2.52548e-05
110178:0.000251437
110179:6.68553e-05
110180:-0.000629933
110181:0.000272911
110182:6.35673e-05
110183:-0.000455357
110184:-3.94956e-05
110185:-0.000797576
110192:0.000468809
110193:3.74123e-05
110194:0.000197552
110195:-8.66378e-05
110196:-0.000658377
110197:0.000132039
110198:0.000299953
110199:-0.000273647
110200:-5.26704e-06
110201:-0.000746141
110208:0.000512099
110209:0.000120117
110210:0.000194886
110211:-0.000170022
110212:-0.000407263
110213:0.000300726
110214:0.000323081
110215:-0.000136471
110216:-0.000219994
110217:-0.000558939
110224:0.000303724
110225:0.000119821
110226:-7.25505e-06
110227:-0.000201359
110228:-0.0003531
110229:4.31183e-06
110230:0.000418302
110231:7.45513e-07
110232:-8.87005e-05
110233:-0.000495544
110240:7.5118e-05
110241:-6.42693e-05
110242:1.30811e-05
110243:-0.000214133
110244:-0.000370818
110245:3.00347e-05
110246:0.000365705
110247:-5.4055e-05
110248:-0.000326024
110249:-0.000334002
110256:-0.000275806
110257:4.18809e-06
110258:9.96072e-06
110259:-0.000127393
110260:-0.000176769
110261:-0.000188764
110262:0.000453428
110263:-0.00010995
110264:-0.000294725
110265:-0.000284703
110272:-0.000247329
110273:-0.000112423
110274:-3.47991e-05
110275:-0.000159654
110276:-9.35287e-05
110277:-0.000157762
110278:0.000355729
110279:-0.000199438
110280:4.38855e-06
110281:-0.00030147
110288:-0.000298752
110289:8.41297e-05
110290:4.22919e-05
110291:2.11365e-05
110292:-7.5969e-05
110293:-6.06116e-06
110294:0.00019459
110295:-0.000474071
110296:-0.000197211
110297:-0.000241535
110304:-0.000150785
110305:0.000198439
110306:-0.000143651
110307:2.65998e-05
110308:-1.04178e-05
110309:5.91871e-05
110310:0.000105808
110311:-0.000549247
110312:-0.000203267
110313:-0.000321167
110320:-0.000291823
110321:0.000346759
110322:6.21151e-05
110323:0.000196301
110324:-0.000135776
110325:1.93599e-05
110326:0.000166355
110327:-0.000609293
110328:-7.99158e-05
110329:-0.000279678
110336:-0.00027974
110337:8.61852e-05
110338:0.00020466
110339:0.000118692
110340:-0.000334681
110341:9.71773e-05
110342:6.37054e-05
110343:-0.000474622
110344:-0.000184929
110345:-6.46358e-05
110352:-0.00012717
110353:8.63011e-06
110354:0.000174883
110355:0.0001126
110356:-0.000364656
110357:0.000133269
110358:-5.60211e-05
110359:-0.000631009
110360:-2.85953e-05
110361:-0.000207455
110368:-3.96022e-05
110369:-5.92913e-05
110370:0.000140988
110371:-0.00011082
110372:-0.000340537
110373:3.43918e-05
110374:4.26485e-06
110375:-0.00067265
110376:1.38378e-05
110377:-0.000351344
110384:-9.09431e-05
110385:-0.000338815
110386:0.000208918
110387:-0.000255693
110388:-0.000490981
110389:0.000465171
110390:-0.000302267
110391:-0.000972046
110392:0.000253732
110393:-0.000226131
110400:-0.000265274
110401:-0.000248311
110402:0.000579847
110403:-0.000430867
110404:-0.000465587
110405:0.000481759
110406:-0.000293092
110407:-0.000934071
110408:1.04655e-05
110409:-0.000413585
110416:-0.000657499
110417:-0.000114724
110418:0.000835598
110419:-0.000945629
110420:-0.000479754
110421:0.000100162
110422:-0.000481417
110423:-0.000333765
110424:-0.00104577
110425:5.52924e-05
110432:-0.000348961
110433:1.08505e-05
110434:0.000583382
110435:-0.000950342
110436:-0.000495592
110437:-0.000569166
110438:-0.000176957
110439:-0.000403711
110440:-0.00110939
110441:5.95285e-05
110448:0.000139171
110449:9.89041e-05
110450:0.000231696
110451:5.85411e-05
110453:-0.000380042
110454:-0.000212928
110455:-8.398e-05
110456:-0.000324964
110457:-0.000601914
110466:-0.00089346
110472:-0.00111234
110481:0.000866757
110482:-0.000827325
110497:7.07104e-05
110498:-0.000445571
110503:-0.000303842
110512:-0.000260074
110513:-0.000174188
110514:1.19319e-05
110515:0.000150556
110516:1.60328e-05
110517:-0.000505209
110518:-0.0012836
110519:-0.000441485
110520:-0.000246862
110521:-0.000241655
110528:-0.000581573
110529:-4.7775e-05
110530:-2.46179e-05
110531:0.000476536
110532:-0.000385276
110533:-0.000362963
110534:-0.000591639
110535:-0.000715068
110536:-0.000667182
110537:-0.000526131
110544:-0.00019612
110545:0.000150934
110546:-8.42465e-05
110547:0.000294231
110548:-0.000471125
110549:5.865e-05
110550:-0.000529593
110551:-0.000684795
110552:-0.000607437
110553:-0.000314901
110560:-0.000138345
110561:0.000277773
110562:0.000186896
110563:0.000108331
110564:-0.000224365
110565:0.000112978
110566:-0.000593588
110567:-0.000554897
110568:-2.10047e-05
110569:-0.000126005
110576:-3.0403e-05
110577:0.000319044
110578:0.000102245
110579:5.61907e-05
110580:-0.000912742
110581:9.80784e-05
110582:-0.000697307
110583:-0.000643092
110584:6.26526e-05
110585:-0.000377605
110592:-1.18343e-05
110593:0.000107351
110594:0.00016391
110595:4.9141e-06
110596:-0.000946121
110597:5.29911e-05
110598:-0.000187553
110599:-0.000594489
110600:8.98703e-05
110601:-0.000342765
110608:7.58946e-06
110609:9.38807e-05
110610:2.75558e-05
110611:-1.31079e-05
110612:-0.000405609
110613:0.000230545
110614:-5.44252e-05
110615:-0.000251691
110616:-6.58037e-05
110617:-0.000342126
110624:0.000132577
110625:-5.9242e-05
110626:0.000156545
110627:-5.68281e-05
110628:-0.000329976
110629:0.000207302
110630:1.79077e-05
110631:-0.000315902
110632:-7.86803e-05
110633:-0.000307923
110640:0.000311529
110641:5.86824e-05
110642:6.01011e-05
110643:-3.6647e-05
110644:-0.0001773
110645:9.15033e-05
110646:0.000130728
110647:-0.000222319
110648:-0.000125061
110649:-0.000371206
110656:0.000420375
110657:-6.68641e-05
110658:-3.26588e-06
110659:-0.000117736
110660:-0.00017011
110661:0.000147979
110662:0.000230452
110663:-4.10151e-05
110664:-0.000209428
110665:-0.000541576
110672:0.000198484
110673:-0.00020535
110674:-0.000132962
110675:-7.15077e-05
110676:-0.000309534
110677:1.9254e-06
110678:0.000422885
110679:-6.79744e-05
110680:-6.90754e-05
110681:-0.000261451
110688:-3.13365e-05
110689:-0.000265672
110690:-0.000134809
110691:-4.02248e-06
110692:-0.000330025
110693:2.98742e-05
110694:0.000518058
110695:-7.94878e-05
110696:-3.07545e-06
110697:-0.000167552
110704:-0.000102547
110705:2.04398e-06
110706:-0.000201133
110707:-6.48434e-05
110708:-0.000106045
110709:-2.87903e-05
110710:0.000497185
110711:-0.000233708
